<?xml version="1.0"?>
<opencv_storage>
<cascade>
  <stageType>BOOST</stageType>
  <featureType>HAAR</featureType>
  <height>24</height>
  <width>24</width>
  <stageParams>
    <boostType>GAB</boostType>
    <minHitRate>9.9500000476837158e-01</minHitRate>
    <maxFalseAlarm>5.0000000000000000e-01</maxFalseAlarm>
    <weightTrimRate>9.4999998807907104e-01</weightTrimRate>
    <maxDepth>1</maxDepth>
    <maxWeakCount>100</maxWeakCount></stageParams>
  <featureParams>
    <maxCatCount>0</maxCatCount>
    <featSize>1</featSize>
    <mode>BASIC</mode></featureParams>
  <stageNum>16</stageNum>
  <stages>
    <!-- stage 0 -->
    <_>
      <maxWeakCount>13</maxWeakCount>
      <stageThreshold>-1.2516911029815674e+00</stageThreshold>
      <weakClassifiers>
        <_>
          <internalNodes>
            0 -1 100 2.9582893475890160e-02</internalNodes>
          <leafValues>
            -6.4481526613235474e-01 3.8945421576499939e-01</leafValues></_>
        <_>
          <internalNodes>
            0 -1 22 -6.7547298967838287e-02</internalNodes>
          <leafValues>
            6.7144644260406494e-01 -2.5046789646148682e-01</leafValues></_>
        <_>
          <internalNodes>
            0 -1 200 4.1695658117532730e-02</internalNodes>
          <leafValues>
            -1.8935769796371460e-01 6.2070989608764648e-01</leafValues></_>
        <_>
          <internalNodes>
            0 -1 285 4.6662032604217529e-02</internalNodes>
          <leafValues>
            -2.6115256547927856e-01 4.9327892065048218e-01</leafValues></_>
        <_>
          <internalNodes>
            0 -1 46 -1.0593183338642120e-02</internalNodes>
          <leafValues>
            5.0746953487396240e-01 -2.6953411102294922e-01</leafValues></_>
        <_>
          <internalNodes>
            0 -1 227 -4.7022320330142975e-02</internalNodes>
          <leafValues>
            4.6568509936332703e-01 -2.1353355050086975e-01</leafValues></_>
        <_>
          <internalNodes>
            0 -1 376 6.8522645160555840e-03</internalNodes>
          <leafValues>
            -1.8110990524291992e-01 5.2876418828964233e-01</leafValues></_>
        <_>
          <internalNodes>
            0 -1 173 -5.4361978545784950e-03</internalNodes>
          <leafValues>
            3.7268641591072083e-01 -2.5696793198585510e-01</leafValues></_>
        <_>
          <internalNodes>
            0 -1 83 4.1342463344335556e-02</internalNodes>
          <leafValues>
            -1.6226321458816528e-01 5.9294271469116211e-01</leafValues></_>
        <_>
          <internalNodes>
            0 -1 239 -4.7600059770047665e-04</internalNodes>
          <leafValues>
            4.4244927167892456e-01 -2.1873378753662109e-01</leafValues></_>
        <_>
          <internalNodes>
            0 -1 357 2.5070846080780029e-02</internalNodes>
          <leafValues>
            -2.0648589730262756e-01 4.7014519572257996e-01</leafValues></_>
        <_>
          <internalNodes>
            0 -1 194 1.3962489366531372e-01</internalNodes>
          <leafValues>
            -1.2463007867336273e-01 6.4491671323776245e-01</leafValues></_>
        <_>
          <internalNodes>
            0 -1 300 -1.2279301881790161e-03</internalNodes>
          <leafValues>
            4.1848784685134888e-01 -2.1134573221206665e-01</leafValues></_></weakClassifiers></_>
    <!-- stage 1 -->
    <_>
      <maxWeakCount>18</maxWeakCount>
      <stageThreshold>-1.2628858089447021e+00</stageThreshold>
      <weakClassifiers>
        <_>
          <internalNodes>
            0 -1 98 1.7959414422512054e-01</internalNodes>
          <leafValues>
            -3.5763096809387207e-01 5.8208954334259033e-01</leafValues></_>
        <_>
          <internalNodes>
            0 -1 380 -1.3192445971071720e-02</internalNodes>
          <leafValues>
            7.1551388502120972e-01 -1.4973674714565277e-01</leafValues></_>
        <_>
          <internalNodes>
            0 -1 185 1.2877627741545439e-03</internalNodes>
          <leafValues>
            -1.6831614077091217e-01 5.8877384662628174e-01</leafValues></_>
        <_>
          <internalNodes>
            0 -1 233 9.8249033093452454e-02</internalNodes>
          <leafValues>
            -2.0559509098529816e-01 4.5964741706848145e-01</leafValues></_>
        <_>
          <internalNodes>
            0 -1 134 6.7815277725458145e-03</internalNodes>
          <leafValues>
            -2.1817439794540405e-01 4.3718054890632629e-01</leafValues></_>
        <_>
          <internalNodes>
            0 -1 217 -1.6707233153283596e-03</internalNodes>
          <leafValues>
            6.9990628957748413e-01 -1.1954788863658905e-01</leafValues></_>
        <_>
          <internalNodes>
            0 -1 211 1.5401745913550258e-03</internalNodes>
          <leafValues>
            -1.0183154791593552e-01 5.6177747249603271e-01</leafValues></_>
        <_>
          <internalNodes>
            0 -1 327 2.8259390965104103e-03</internalNodes>
          <leafValues>
            -1.1413355916738510e-01 6.3191431760787964e-01</leafValues></_>
        <_>
          <internalNodes>
            0 -1 122 -1.1729352176189423e-02</internalNodes>
          <leafValues>
            5.9752082824707031e-01 -1.1006355285644531e-01</leafValues></_>
        <_>
          <internalNodes>
            0 -1 142 4.1913107037544250e-02</internalNodes>
          <leafValues>
            -1.3287948071956635e-01 4.1232559084892273e-01</leafValues></_>
        <_>
          <internalNodes>
            0 -1 303 -1.5393826179206371e-03</internalNodes>
          <leafValues>
            4.3901517987251282e-01 -1.2215454876422882e-01</leafValues></_>
        <_>
          <internalNodes>
            0 -1 289 -2.2020865231752396e-02</internalNodes>
          <leafValues>
            -8.5637366771697998e-01 8.2929119467735291e-02</leafValues></_>
        <_>
          <internalNodes>
            0 -1 65 3.3182606101036072e-02</internalNodes>
          <leafValues>
            7.1666084229946136e-02 -7.1941024065017700e-01</leafValues></_>
        <_>
          <internalNodes>
            0 -1 73 -7.6259928755462170e-03</internalNodes>
          <leafValues>
            -6.2909901142120361e-01 9.5839299261569977e-02</leafValues></_>
        <_>
          <internalNodes>
            0 -1 87 1.4145913155516610e-05</internalNodes>
          <leafValues>
            1.9128030538558960e-01 -3.1476855278015137e-01</leafValues></_>
        <_>
          <internalNodes>
            0 -1 291 -1.5887772897258401e-03</internalNodes>
          <leafValues>
            6.5462005138397217e-01 -9.4135321676731110e-02</leafValues></_>
        <_>
          <internalNodes>
            0 -1 271 -1.6647459939122200e-02</internalNodes>
          <leafValues>
            -5.1906234025955200e-01 1.1638166755437851e-01</leafValues></_>
        <_>
          <internalNodes>
            0 -1 280 -3.1735731754451990e-03</internalNodes>
          <leafValues>
            4.5149594545364380e-01 -1.5648359060287476e-01</leafValues></_></weakClassifiers></_>
    <!-- stage 2 -->
    <_>
      <maxWeakCount>23</maxWeakCount>
      <stageThreshold>-1.2659063339233398e+00</stageThreshold>
      <weakClassifiers>
        <_>
          <internalNodes>
            0 -1 48 3.6599092185497284e-02</internalNodes>
          <leafValues>
            -2.1344119310379028e-01 7.1246004104614258e-01</leafValues></_>
        <_>
          <internalNodes>
            0 -1 195 -2.3333314806222916e-02</internalNodes>
          <leafValues>
            3.1758254766464233e-01 -3.2342344522476196e-01</leafValues></_>
        <_>
          <internalNodes>
            0 -1 2 -2.7879889239557087e-04</internalNodes>
          <leafValues>
            -3.9353811740875244e-01 1.7202267050743103e-01</leafValues></_>
        <_>
          <internalNodes>
            0 -1 244 2.0999121479690075e-03</internalNodes>
          <leafValues>
            -1.3089026510715485e-01 5.0369268655776978e-01</leafValues></_>
        <_>
          <internalNodes>
            0 -1 283 5.8146610856056213e-02</internalNodes>
          <leafValues>
            -2.2433960437774658e-01 2.9292690753936768e-01</leafValues></_>
        <_>
          <internalNodes>
            0 -1 282 -9.8353587090969086e-03</internalNodes>
          <leafValues>
            6.3899111747741699e-01 -7.9754032194614410e-02</leafValues></_>
        <_>
          <internalNodes>
            0 -1 250 -6.3211703673005104e-03</internalNodes>
          <leafValues>
            -3.8633295893669128e-01 1.6843903064727783e-01</leafValues></_>
        <_>
          <internalNodes>
            0 -1 249 8.7850177660584450e-03</internalNodes>
          <leafValues>
            9.5504321157932281e-02 -5.6748020648956299e-01</leafValues></_>
        <_>
          <internalNodes>
            0 -1 238 9.4531674403697252e-04</internalNodes>
          <leafValues>
            -1.4753155410289764e-01 4.8680791258811951e-01</leafValues></_>
        <_>
          <internalNodes>
            0 -1 238 -1.1554071679711342e-03</internalNodes>
          <leafValues>
            4.9267464876174927e-01 -1.0190154612064362e-01</leafValues></_>
        <_>
          <internalNodes>
            0 -1 359 9.0415138402022421e-05</internalNodes>
          <leafValues>
            1.8081644177436829e-01 -3.3849063515663147e-01</leafValues></_>
        <_>
          <internalNodes>
            0 -1 276 9.7607722273096442e-04</internalNodes>
          <leafValues>
            -1.7526783049106598e-01 3.1950509548187256e-01</leafValues></_>
        <_>
          <internalNodes>
            0 -1 178 -8.1959500908851624e-02</internalNodes>
          <leafValues>
            6.6193103790283203e-01 -8.7631367146968842e-02</leafValues></_>
        <_>
          <internalNodes>
            0 -1 316 1.4330887794494629e-01</internalNodes>
          <leafValues>
            -8.9272804558277130e-02 5.6125354766845703e-01</leafValues></_>
        <_>
          <internalNodes>
            0 -1 138 6.7870303988456726e-02</internalNodes>
          <leafValues>
            -1.6960400342941284e-01 4.6873545646667480e-01</leafValues></_>
        <_>
          <internalNodes>
            0 -1 97 -8.2145677879452705e-03</internalNodes>
          <leafValues>
            2.9526543617248535e-01 -2.2956266999244690e-01</leafValues></_>
        <_>
          <internalNodes>
            0 -1 148 8.0469083040952682e-03</internalNodes>
          <leafValues>
            -9.0038470923900604e-02 6.2721621990203857e-01</leafValues></_>
        <_>
          <internalNodes>
            0 -1 216 -1.8757345387712121e-03</internalNodes>
          <leafValues>
            5.2375847101211548e-01 -1.1605469137430191e-01</leafValues></_>
        <_>
          <internalNodes>
            0 -1 77 1.1928325891494751e-01</internalNodes>
          <leafValues>
            -1.1364284157752991e-01 5.3170448541641235e-01</leafValues></_>
        <_>
          <internalNodes>
            0 -1 74 -4.4732540845870972e-01</internalNodes>
          <leafValues>
            7.1453011035919189e-01 -8.2432739436626434e-02</leafValues></_>
        <_>
          <internalNodes>
            0 -1 218 1.2981265783309937e-02</internalNodes>
          <leafValues>
            -5.5519498884677887e-02 7.5478625297546387e-01</leafValues></_>
        <_>
          <internalNodes>
            0 -1 151 2.7652928605675697e-02</internalNodes>
          <leafValues>
            8.4769859910011292e-02 -8.7587046623229980e-01</leafValues></_>
        <_>
          <internalNodes>
            0 -1 339 -2.9676812700927258e-03</internalNodes>
          <leafValues>
            2.9194843769073486e-01 -1.8249736726284027e-01</leafValues></_></weakClassifiers></_>
    <!-- stage 3 -->
    <_>
      <maxWeakCount>26</maxWeakCount>
      <stageThreshold>-1.0747764110565186e+00</stageThreshold>
      <weakClassifiers>
        <_>
          <internalNodes>
            0 -1 391 4.3437734246253967e-02</internalNodes>
          <leafValues>
            -2.0048899948596954e-01 7.3239433765411377e-01</leafValues></_>
        <_>
          <internalNodes>
            0 -1 105 7.4832872487604618e-03</internalNodes>
          <leafValues>
            -3.8654676079750061e-01 2.4321334064006805e-01</leafValues></_>
        <_>
          <internalNodes>
            0 -1 181 4.5105577446520329e-03</internalNodes>
          <leafValues>
            -2.2109475731849670e-01 3.6329117417335510e-01</leafValues></_>
        <_>
          <internalNodes>
            0 -1 348 2.3997310199774802e-04</internalNodes>
          <leafValues>
            2.3515620827674866e-01 -2.7063727378845215e-01</leafValues></_>
        <_>
          <internalNodes>
            0 -1 147 3.1957432627677917e-02</internalNodes>
          <leafValues>
            1.9141817092895508e-01 -4.8235690593719482e-01</leafValues></_>
        <_>
          <internalNodes>
            0 -1 71 -1.1263079941272736e-02</internalNodes>
          <leafValues>
            5.5317538976669312e-01 -1.8312531709671021e-01</leafValues></_>
        <_>
          <internalNodes>
            0 -1 204 1.5991963446140289e-01</internalNodes>
          <leafValues>
            -9.8982460796833038e-02 4.8201924562454224e-01</leafValues></_>
        <_>
          <internalNodes>
            0 -1 314 1.1899899691343307e-02</internalNodes>
          <leafValues>
            -9.7594529390335083e-02 7.6380848884582520e-01</leafValues></_>
        <_>
          <internalNodes>
            0 -1 82 3.3715800964273512e-04</internalNodes>
          <leafValues>
            1.7721493542194366e-01 -3.9520028233528137e-01</leafValues></_>
        <_>
          <internalNodes>
            0 -1 167 1.7701247707009315e-02</internalNodes>
          <leafValues>
            -8.7592065334320068e-02 7.5402200222015381e-01</leafValues></_>
        <_>
          <internalNodes>
            0 -1 231 2.7555935084819794e-02</internalNodes>
          <leafValues>
            -1.4968232810497284e-01 3.5460403561592102e-01</leafValues></_>
        <_>
          <internalNodes>
            0 -1 281 -2.8633610345423222e-03</internalNodes>
          <leafValues>
            3.4858170151710510e-01 -1.6396351158618927e-01</leafValues></_>
        <_>
          <internalNodes>
            0 -1 375 -6.7844375735148787e-05</internalNodes>
          <leafValues>
            -2.9404589533805847e-01 1.8895944952964783e-01</leafValues></_>
        <_>
          <internalNodes>
            0 -1 245 5.0258515402674675e-03</internalNodes>
          <leafValues>
            -1.2226372212171555e-01 5.6676691770553589e-01</leafValues></_>
        <_>
          <internalNodes>
            0 -1 288 8.2783901598304510e-04</internalNodes>
          <leafValues>
            -1.1032195389270782e-01 4.1246467828750610e-01</leafValues></_>
        <_>
          <internalNodes>
            0 -1 197 1.9577476195991039e-03</internalNodes>
          <leafValues>
            1.5980704128742218e-01 -3.2161584496498108e-01</leafValues></_>
        <_>
          <internalNodes>
            0 -1 44 5.5758431553840637e-03</internalNodes>
          <leafValues>
            -1.4599999785423279e-01 3.7400719523429871e-01</leafValues></_>
        <_>
          <internalNodes>
            0 -1 317 -3.3642044290900230e-03</internalNodes>
          <leafValues>
            3.4817090630531311e-01 -1.4356561005115509e-01</leafValues></_>
        <_>
          <internalNodes>
            0 -1 345 2.9407868161797523e-02</internalNodes>
          <leafValues>
            1.2326598912477493e-01 -4.7113072872161865e-01</leafValues></_>
        <_>
          <internalNodes>
            0 -1 192 9.1320285573601723e-03</internalNodes>
          <leafValues>
            8.2143381237983704e-02 -5.4394423961639404e-01</leafValues></_>
        <_>
          <internalNodes>
            0 -1 297 3.3485181629657745e-02</internalNodes>
          <leafValues>
            1.0318362712860107e-01 -4.6639302372932434e-01</leafValues></_>
        <_>
          <internalNodes>
            0 -1 15 -6.3323415815830231e-02</internalNodes>
          <leafValues>
            5.8587443828582764e-01 -7.9321868717670441e-02</leafValues></_>
        <_>
          <internalNodes>
            0 -1 220 -1.9169013248756528e-03</internalNodes>
          <leafValues>
            4.8007771372795105e-01 -9.3247815966606140e-02</leafValues></_>
        <_>
          <internalNodes>
            0 -1 109 -3.8252003490924835e-02</internalNodes>
          <leafValues>
            -7.0484054088592529e-01 6.9787926971912384e-02</leafValues></_>
        <_>
          <internalNodes>
            0 -1 152 6.5959990024566650e-03</internalNodes>
          <leafValues>
            -1.2051340192556381e-01 4.3319326639175415e-01</leafValues></_>
        <_>
          <internalNodes>
            0 -1 270 -4.2254321277141571e-02</internalNodes>
          <leafValues>
            -6.0670489072799683e-01 8.2441829144954681e-02</leafValues></_></weakClassifiers></_>
    <!-- stage 4 -->
    <_>
      <maxWeakCount>24</maxWeakCount>
      <stageThreshold>-1.1269242763519287e+00</stageThreshold>
      <weakClassifiers>
        <_>
          <internalNodes>
            0 -1 16 1.8212041258811951e-01</internalNodes>
          <leafValues>
            -3.6991149187088013e-01 3.7721517682075500e-01</leafValues></_>
        <_>
          <internalNodes>
            0 -1 367 -3.3881686627864838e-02</internalNodes>
          <leafValues>
            6.5201067924499512e-01 -1.5284161269664764e-01</leafValues></_>
        <_>
          <internalNodes>
            0 -1 154 1.4822220802307129e-01</internalNodes>
          <leafValues>
            -1.4284977316856384e-01 4.8218142986297607e-01</leafValues></_>
        <_>
          <internalNodes>
            0 -1 101 2.4579018354415894e-01</internalNodes>
          <leafValues>
            -1.1008259654045105e-01 5.8701133728027344e-01</leafValues></_>
        <_>
          <internalNodes>
            0 -1 329 9.1370791196823120e-03</internalNodes>
          <leafValues>
            -6.3742160797119141e-02 8.1704306602478027e-01</leafValues></_>
        <_>
          <internalNodes>
            0 -1 371 -1.6161959138116799e-05</internalNodes>
          <leafValues>
            -3.2614061236381531e-01 2.2999866306781769e-01</leafValues></_>
        <_>
          <internalNodes>
            0 -1 45 -6.9297989830374718e-03</internalNodes>
          <leafValues>
            3.2203608751296997e-01 -1.7173551023006439e-01</leafValues></_>
        <_>
          <internalNodes>
            0 -1 198 2.6450304314494133e-02</internalNodes>
          <leafValues>
            -1.2816111743450165e-01 4.1193172335624695e-01</leafValues></_>
        <_>
          <internalNodes>
            0 -1 136 -3.1354121863842010e-02</internalNodes>
          <leafValues>
            2.9079714417457581e-01 -2.1590526401996613e-01</leafValues></_>
        <_>
          <internalNodes>
            0 -1 107 7.2812661528587341e-03</internalNodes>
          <leafValues>
            -1.8125091493129730e-01 3.4926468133926392e-01</leafValues></_>
        <_>
          <internalNodes>
            0 -1 157 1.5693049877882004e-02</internalNodes>
          <leafValues>
            1.4087656140327454e-01 -5.0482684373855591e-01</leafValues></_>
        <_>
          <internalNodes>
            0 -1 162 -3.7566539831459522e-03</internalNodes>
          <leafValues>
            3.6420765519142151e-01 -1.4875794947147369e-01</leafValues></_>
        <_>
          <internalNodes>
            0 -1 40 6.0692866099998355e-05</internalNodes>
          <leafValues>
            1.8328738212585449e-01 -2.9347628355026245e-01</leafValues></_>
        <_>
          <internalNodes>
            0 -1 33 2.4303516745567322e-01</internalNodes>
          <leafValues>
            -7.0075146853923798e-02 7.1879279613494873e-01</leafValues></_>
        <_>
          <internalNodes>
            0 -1 30 -5.3639136254787445e-02</internalNodes>
          <leafValues>
            3.4542557597160339e-01 -1.6966384649276733e-01</leafValues></_>
        <_>
          <internalNodes>
            0 -1 248 -9.9918218329548836e-03</internalNodes>
          <leafValues>
            -5.6704854965209961e-01 1.0811980813741684e-01</leafValues></_>
        <_>
          <internalNodes>
            0 -1 11 -7.9924315214157104e-02</internalNodes>
          <leafValues>
            6.3108080625534058e-01 -8.8552527129650116e-02</leafValues></_>
        <_>
          <internalNodes>
            0 -1 153 3.5373967140913010e-02</internalNodes>
          <leafValues>
            -1.2590485811233521e-01 4.4105431437492371e-01</leafValues></_>
        <_>
          <internalNodes>
            0 -1 68 -2.4700760841369629e-02</internalNodes>
          <leafValues>
            6.1394655704498291e-01 -7.4154980480670929e-02</leafValues></_>
        <_>
          <internalNodes>
            0 -1 222 1.3633596710860729e-02</internalNodes>
          <leafValues>
            8.6429983377456665e-02 -6.4916300773620605e-01</leafValues></_>
        <_>
          <internalNodes>
            0 -1 262 3.0211009085178375e-02</internalNodes>
          <leafValues>
            5.3974669426679611e-02 -6.8372118473052979e-01</leafValues></_>
        <_>
          <internalNodes>
            0 -1 36 -1.0988843860104680e-03</internalNodes>
          <leafValues>
            4.0062284469604492e-01 -1.2901939451694489e-01</leafValues></_>
        <_>
          <internalNodes>
            0 -1 298 -6.3871999736875296e-04</internalNodes>
          <leafValues>
            3.0578777194023132e-01 -1.5468965470790863e-01</leafValues></_>
        <_>
          <internalNodes>
            0 -1 219 -1.4533204957842827e-02</internalNodes>
          <leafValues>
            6.6952651739120483e-01 -7.0977158844470978e-02</leafValues></_></weakClassifiers></_>
    <!-- stage 5 -->
    <_>
      <maxWeakCount>26</maxWeakCount>
      <stageThreshold>-1.1869593858718872e+00</stageThreshold>
      <weakClassifiers>
        <_>
          <internalNodes>
            0 -1 114 2.9130967333912849e-02</internalNodes>
          <leafValues>
            -3.0015796422958374e-01 3.9755350351333618e-01</leafValues></_>
        <_>
          <internalNodes>
            0 -1 58 -5.2253298461437225e-02</internalNodes>
          <leafValues>
            4.5728397369384766e-01 -1.8640618026256561e-01</leafValues></_>
        <_>
          <internalNodes>
            0 -1 392 3.4873005002737045e-02</internalNodes>
          <leafValues>
            -1.5900972485542297e-01 7.9907584190368652e-01</leafValues></_>
        <_>
          <internalNodes>
            0 -1 338 4.0100798010826111e-02</internalNodes>
          <leafValues>
            -2.3590663447976112e-02 9.4732654094696045e-01</leafValues></_>
        <_>
          <internalNodes>
            0 -1 341 -1.1447563767433167e-02</internalNodes>
          <leafValues>
            3.9328563213348389e-01 -1.8349669873714447e-01</leafValues></_>
        <_>
          <internalNodes>
            0 -1 290 -1.5465116593986750e-03</internalNodes>
          <leafValues>
            4.3993183970451355e-01 -1.1583960801362991e-01</leafValues></_>
        <_>
          <internalNodes>
            0 -1 20 -1.0031289607286453e-01</internalNodes>
          <leafValues>
            4.0435516834259033e-01 -1.3780820369720459e-01</leafValues></_>
        <_>
          <internalNodes>
            0 -1 155 4.7814160585403442e-02</internalNodes>
          <leafValues>
            -2.1307839453220367e-01 2.9332920908927917e-01</leafValues></_>
        <_>
          <internalNodes>
            0 -1 318 2.3309087846428156e-03</internalNodes>
          <leafValues>
            -7.8692622482776642e-02 5.8153462409973145e-01</leafValues></_>
        <_>
          <internalNodes>
            0 -1 349 1.2454733951017261e-04</internalNodes>
          <leafValues>
            1.8906086683273315e-01 -3.1318452954292297e-01</leafValues></_>
        <_>
          <internalNodes>
            0 -1 349 -1.0945917165372521e-04</internalNodes>
          <leafValues>
            -2.5996860861778259e-01 2.0848430693149567e-01</leafValues></_>
        <_>
          <internalNodes>
            0 -1 277 7.8152492642402649e-04</internalNodes>
          <leafValues>
            -1.0370649397373199e-01 4.7859853506088257e-01</leafValues></_>
        <_>
          <internalNodes>
            0 -1 274 -1.1210344731807709e-02</internalNodes>
          <leafValues>
            -6.6566336154937744e-01 6.6330902278423309e-02</leafValues></_>
        <_>
          <internalNodes>
            0 -1 324 -1.0732561349868774e-03</internalNodes>
          <leafValues>
            4.6329140663146973e-01 -1.1090730130672455e-01</leafValues></_>
        <_>
          <internalNodes>
            0 -1 377 -4.4426855311030522e-05</internalNodes>
          <leafValues>
            -2.7715027332305908e-01 1.6608957946300507e-01</leafValues></_>
        <_>
          <internalNodes>
            0 -1 24 -2.6597457006573677e-02</internalNodes>
          <leafValues>
            -7.0807260274887085e-01 5.9586960822343826e-02</leafValues></_>
        <_>
          <internalNodes>
            0 -1 226 -3.8947969675064087e-02</internalNodes>
          <leafValues>
            5.1531839370727539e-01 -8.7973967194557190e-02</leafValues></_>
        <_>
          <internalNodes>
            0 -1 208 1.0757285635918379e-03</internalNodes>
          <leafValues>
            -2.8183826804161072e-01 1.8911945819854736e-01</leafValues></_>
        <_>
          <internalNodes>
            0 -1 115 -1.8765756860375404e-02</internalNodes>
          <leafValues>
            -7.2456139326095581e-01 6.7690871655941010e-02</leafValues></_>
        <_>
          <internalNodes>
            0 -1 320 3.8545415736734867e-03</internalNodes>
          <leafValues>
            -1.0957325994968414e-01 5.4391938447952271e-01</leafValues></_>
        <_>
          <internalNodes>
            0 -1 7 -3.0400119721889496e-02</internalNodes>
          <leafValues>
            3.9791008830070496e-01 -1.4177170395851135e-01</leafValues></_>
        <_>
          <internalNodes>
            0 -1 355 1.3597574084997177e-02</internalNodes>
          <leafValues>
            -9.3808874487876892e-02 6.0411077737808228e-01</leafValues></_>
        <_>
          <internalNodes>
            0 -1 106 -4.0622077882289886e-02</internalNodes>
          <leafValues>
            -7.5047248601913452e-01 6.9457091391086578e-02</leafValues></_>
        <_>
          <internalNodes>
            0 -1 150 -1.7041778191924095e-03</internalNodes>
          <leafValues>
            3.4038230776786804e-01 -1.7016528546810150e-01</leafValues></_>
        <_>
          <internalNodes>
            0 -1 313 -7.9307390842586756e-04</internalNodes>
          <leafValues>
            3.1706237792968750e-01 -1.5359127521514893e-01</leafValues></_>
        <_>
          <internalNodes>
            0 -1 21 -1.4401996508240700e-02</internalNodes>
          <leafValues>
            -7.6682460308074951e-01 6.5751872956752777e-02</leafValues></_></weakClassifiers></_>
    <!-- stage 6 -->
    <_>
      <maxWeakCount>26</maxWeakCount>
      <stageThreshold>-9.8126900196075439e-01</stageThreshold>
      <weakClassifiers>
        <_>
          <internalNodes>
            0 -1 381 -1.3290930539369583e-02</internalNodes>
          <leafValues>
            5.6632655858993530e-01 -2.2382198274135590e-01</leafValues></_>
        <_>
          <internalNodes>
            0 -1 179 3.2898142933845520e-02</internalNodes>
          <leafValues>
            -2.6256865262985229e-01 3.3787423372268677e-01</leafValues></_>
        <_>
          <internalNodes>
            0 -1 5 -2.4021236225962639e-02</internalNodes>
          <leafValues>
            4.1789737343788147e-01 -2.1248659491539001e-01</leafValues></_>
        <_>
          <internalNodes>
            0 -1 133 4.0509733371436596e-03</internalNodes>
          <leafValues>
            -1.9194234907627106e-01 3.4204319119453430e-01</leafValues></_>
        <_>
          <internalNodes>
            0 -1 221 1.1048621963709593e-03</internalNodes>
          <leafValues>
            -1.8200168013572693e-01 3.7056657671928406e-01</leafValues></_>
        <_>
          <internalNodes>
            0 -1 23 -8.6203441023826599e-02</internalNodes>
          <leafValues>
            4.4605317711830139e-01 -1.2980622053146362e-01</leafValues></_>
        <_>
          <internalNodes>
            0 -1 70 -4.4195636291988194e-05</internalNodes>
          <leafValues>
            -3.1361690163612366e-01 2.0805697143077850e-01</leafValues></_>
        <_>
          <internalNodes>
            0 -1 346 1.7005812842398882e-03</internalNodes>
          <leafValues>
            -1.1811162531375885e-01 5.2764284610748291e-01</leafValues></_>
        <_>
          <internalNodes>
            0 -1 212 1.1593332746997476e-03</internalNodes>
          <leafValues>
            -1.0798700153827667e-01 5.1792287826538086e-01</leafValues></_>
        <_>
          <internalNodes>
            0 -1 193 -3.7500206381082535e-02</internalNodes>
          <leafValues>
            3.9963021874427795e-01 -1.3438953459262848e-01</leafValues></_>
        <_>
          <internalNodes>
            0 -1 390 -3.1797168048797175e-05</internalNodes>
          <leafValues>
            -2.8464099764823914e-01 2.6939159631729126e-01</leafValues></_>
        <_>
          <internalNodes>
            0 -1 393 3.7258891097735614e-05</internalNodes>
          <leafValues>
            1.8965166807174683e-01 -3.5269990563392639e-01</leafValues></_>
        <_>
          <internalNodes>
            0 -1 292 1.6181613318622112e-03</internalNodes>
          <leafValues>
            -1.4828337728977203e-01 4.4046139717102051e-01</leafValues></_>
        <_>
          <internalNodes>
            0 -1 85 4.4710233807563782e-02</internalNodes>
          <leafValues>
            1.0555287450551987e-01 -8.1699335575103760e-01</leafValues></_>
        <_>
          <internalNodes>
            0 -1 85 -3.7229046225547791e-02</internalNodes>
          <leafValues>
            -6.7646187543869019e-01 5.5006586015224457e-02</leafValues></_>
        <_>
          <internalNodes>
            0 -1 187 -7.4411055538803339e-04</internalNodes>
          <leafValues>
            3.6577227711677551e-01 -1.7666530609130859e-01</leafValues></_>
        <_>
          <internalNodes>
            0 -1 234 6.1424124985933304e-02</internalNodes>
          <leafValues>
            1.0110053420066833e-01 -6.9083368778228760e-01</leafValues></_>
        <_>
          <internalNodes>
            0 -1 57 5.5420905351638794e-02</internalNodes>
          <leafValues>
            -1.8221253156661987e-01 3.6635810136795044e-01</leafValues></_>
        <_>
          <internalNodes>
            0 -1 331 4.9673303961753845e-02</internalNodes>
          <leafValues>
            -1.1170542240142822e-01 5.8995091915130615e-01</leafValues></_>
        <_>
          <internalNodes>
            0 -1 299 -2.1316499914973974e-03</internalNodes>
          <leafValues>
            3.5694977641105652e-01 -1.6476391255855560e-01</leafValues></_>
        <_>
          <internalNodes>
            0 -1 189 9.4656962901353836e-03</internalNodes>
          <leafValues>
            -1.1662009358406067e-01 4.6334159374237061e-01</leafValues></_>
        <_>
          <internalNodes>
            0 -1 301 -2.8101326897740364e-03</internalNodes>
          <leafValues>
            3.6799582839012146e-01 -1.7307040095329285e-01</leafValues></_>
        <_>
          <internalNodes>
            0 -1 387 3.2233074307441711e-05</internalNodes>
          <leafValues>
            1.8221059441566467e-01 -3.1064003705978394e-01</leafValues></_>
        <_>
          <internalNodes>
            0 -1 123 -2.2762924432754517e-02</internalNodes>
          <leafValues>
            5.5604386329650879e-01 -9.0354792773723602e-02</leafValues></_>
        <_>
          <internalNodes>
            0 -1 52 8.2625728100538254e-04</internalNodes>
          <leafValues>
            1.3875080645084381e-01 -4.1144061088562012e-01</leafValues></_>
        <_>
          <internalNodes>
            0 -1 17 -3.4246146678924561e-03</internalNodes>
          <leafValues>
            4.4777670502662659e-01 -1.2995991110801697e-01</leafValues></_></weakClassifiers></_>
    <!-- stage 7 -->
    <_>
      <maxWeakCount>31</maxWeakCount>
      <stageThreshold>-1.1412105560302734e+00</stageThreshold>
      <weakClassifiers>
        <_>
          <internalNodes>
            0 -1 397 1.8527187057770789e-04</internalNodes>
          <leafValues>
            1.4676806330680847e-01 -5.1735538244247437e-01</leafValues></_>
        <_>
          <internalNodes>
            0 -1 78 5.9515861794352531e-03</internalNodes>
          <leafValues>
            -3.4973847866058350e-01 1.9898828864097595e-01</leafValues></_>
        <_>
          <internalNodes>
            0 -1 362 1.1484191054478288e-04</internalNodes>
          <leafValues>
            2.1394589543342590e-01 -3.1871339678764343e-01</leafValues></_>
        <_>
          <internalNodes>
            0 -1 37 -3.0899248667992651e-04</internalNodes>
          <leafValues>
            -3.0582717061042786e-01 2.1005649864673615e-01</leafValues></_>
        <_>
          <internalNodes>
            0 -1 13 1.4411495998501778e-02</internalNodes>
          <leafValues>
            -7.3364689946174622e-02 6.0277271270751953e-01</leafValues></_>
        <_>
          <internalNodes>
            0 -1 93 -2.9813179373741150e-01</internalNodes>
          <leafValues>
            5.8422845602035522e-01 -1.1066342145204544e-01</leafValues></_>
        <_>
          <internalNodes>
            0 -1 177 5.2569068968296051e-02</internalNodes>
          <leafValues>
            -1.7985615134239197e-01 3.5560467839241028e-01</leafValues></_>
        <_>
          <internalNodes>
            0 -1 53 3.6753332614898682e-01</internalNodes>
          <leafValues>
            -2.9054600745439529e-02 7.3366826772689819e-01</leafValues></_>
        <_>
          <internalNodes>
            0 -1 386 -2.7813820634037256e-04</internalNodes>
          <leafValues>
            -3.5723263025283813e-01 1.4732584357261658e-01</leafValues></_>
        <_>
          <internalNodes>
            0 -1 363 1.3559754006564617e-02</internalNodes>
          <leafValues>
            -2.0718561112880707e-01 2.4999989569187164e-01</leafValues></_>
        <_>
          <internalNodes>
            0 -1 6 -7.6120723970234394e-03</internalNodes>
          <leafValues>
            -3.3014208078384399e-01 1.7003330588340759e-01</leafValues></_>
        <_>
          <internalNodes>
            0 -1 140 1.3401654362678528e-01</internalNodes>
          <leafValues>
            5.0598904490470886e-02 -7.2664719820022583e-01</leafValues></_>
        <_>
          <internalNodes>
            0 -1 139 1.8425929592922330e-03</internalNodes>
          <leafValues>
            1.3307541608810425e-01 -3.3034029603004456e-01</leafValues></_>
        <_>
          <internalNodes>
            0 -1 276 8.7132008047774434e-04</internalNodes>
          <leafValues>
            -1.6868753731250763e-01 2.6854056119918823e-01</leafValues></_>
        <_>
          <internalNodes>
            0 -1 276 -6.6524546127766371e-04</internalNodes>
          <leafValues>
            3.1277582049369812e-01 -1.5229681134223938e-01</leafValues></_>
        <_>
          <internalNodes>
            0 -1 246 1.6934901475906372e-02</internalNodes>
          <leafValues>
            8.3653375506401062e-02 -5.6001520156860352e-01</leafValues></_>
        <_>
          <internalNodes>
            0 -1 47 1.7875118181109428e-02</internalNodes>
          <leafValues>
            -6.2992446124553680e-02 8.0747061967849731e-01</leafValues></_>
        <_>
          <internalNodes>
            0 -1 50 -3.9984621107578278e-02</internalNodes>
          <leafValues>
            3.0455112457275391e-01 -1.6241720318794250e-01</leafValues></_>
        <_>
          <internalNodes>
            0 -1 214 -2.3167380131781101e-03</internalNodes>
          <leafValues>
            3.4725695848464966e-01 -1.3514587283134460e-01</leafValues></_>
        <_>
          <internalNodes>
            0 -1 216 3.0938796699047089e-03</internalNodes>
          <leafValues>
            -8.0070957541465759e-02 6.4721637964248657e-01</leafValues></_>
        <_>
          <internalNodes>
            0 -1 118 -7.8947574365884066e-04</internalNodes>
          <leafValues>
            2.1182201802730560e-01 -2.3124483227729797e-01</leafValues></_>
        <_>
          <internalNodes>
            0 -1 306 8.6142830550670624e-02</internalNodes>
          <leafValues>
            -1.2684151530265808e-01 3.9222419261932373e-01</leafValues></_>
        <_>
          <internalNodes>
            0 -1 32 1.0805207304656506e-02</internalNodes>
          <leafValues>
            -2.1130448579788208e-01 2.4564687907695770e-01</leafValues></_>
        <_>
          <internalNodes>
            0 -1 252 -7.6649710536003113e-03</internalNodes>
          <leafValues>
            3.9965003728866577e-01 -1.3332356512546539e-01</leafValues></_>
        <_>
          <internalNodes>
            0 -1 76 9.4178423285484314e-02</internalNodes>
          <leafValues>
            -5.1793981343507767e-02 7.3912775516510010e-01</leafValues></_>
        <_>
          <internalNodes>
            0 -1 228 -3.7976302206516266e-02</internalNodes>
          <leafValues>
            4.5331433415412903e-01 -1.0339204221963882e-01</leafValues></_>
        <_>
          <internalNodes>
            0 -1 96 9.7676573204807937e-05</internalNodes>
          <leafValues>
            1.8447491526603699e-01 -2.5298076868057251e-01</leafValues></_>
        <_>
          <internalNodes>
            0 -1 35 1.3524821400642395e-01</internalNodes>
          <leafValues>
            -9.3896232545375824e-02 5.2520239353179932e-01</leafValues></_>
        <_>
          <internalNodes>
            0 -1 8 4.8676468431949615e-02</internalNodes>
          <leafValues>
            1.4890177547931671e-01 -3.4763476252555847e-01</leafValues></_>
        <_>
          <internalNodes>
            0 -1 368 4.1375643922947347e-04</internalNodes>
          <leafValues>
            1.5987662971019745e-01 -3.0010867118835449e-01</leafValues></_>
        <_>
          <internalNodes>
            0 -1 322 9.8270792514085770e-03</internalNodes>
          <leafValues>
            9.1223791241645813e-02 -5.2662885189056396e-01</leafValues></_></weakClassifiers></_>
    <!-- stage 8 -->
    <_>
      <maxWeakCount>32</maxWeakCount>
      <stageThreshold>-1.1164413690567017e+00</stageThreshold>
      <weakClassifiers>
        <_>
          <internalNodes>
            0 -1 116 2.0242413505911827e-02</internalNodes>
          <leafValues>
            -2.6017442345619202e-01 4.3750000000000000e-01</leafValues></_>
        <_>
          <internalNodes>
            0 -1 383 1.0448767244815826e-01</internalNodes>
          <leafValues>
            -8.5617251694202423e-02 8.1996148824691772e-01</leafValues></_>
        <_>
          <internalNodes>
            0 -1 55 -4.6267867088317871e-02</internalNodes>
          <leafValues>
            3.4925404191017151e-01 -1.8028448522090912e-01</leafValues></_>
        <_>
          <internalNodes>
            0 -1 330 1.2467458844184875e-02</internalNodes>
          <leafValues>
            -8.6279824376106262e-02 8.9531606435775757e-01</leafValues></_>
        <_>
          <internalNodes>
            0 -1 61 1.6669018566608429e-01</internalNodes>
          <leafValues>
            -7.7049605548381805e-02 5.9534257650375366e-01</leafValues></_>
        <_>
          <internalNodes>
            0 -1 284 3.7442978471517563e-02</internalNodes>
          <leafValues>
            -1.7242017388343811e-01 3.5772174596786499e-01</leafValues></_>
        <_>
          <internalNodes>
            0 -1 361 -7.6293683378025889e-05</internalNodes>
          <leafValues>
            -3.0290013551712036e-01 1.8414425849914551e-01</leafValues></_>
        <_>
          <internalNodes>
            0 -1 236 -2.1835006773471832e-02</internalNodes>
          <leafValues>
            -9.0739107131958008e-01 6.9026485085487366e-02</leafValues></_>
        <_>
          <internalNodes>
            0 -1 203 -4.6084984205663204e-03</internalNodes>
          <leafValues>
            2.4877986311912537e-01 -1.8128113448619843e-01</leafValues></_>
        <_>
          <internalNodes>
            0 -1 131 2.0635828375816345e-02</internalNodes>
          <leafValues>
            6.2427125871181488e-02 -7.8519320487976074e-01</leafValues></_>
        <_>
          <internalNodes>
            0 -1 294 -1.4712460339069366e-02</internalNodes>
          <leafValues>
            -7.6093578338623047e-01 5.4768558591604233e-02</leafValues></_>
        <_>
          <internalNodes>
            0 -1 56 -5.4902065545320511e-02</internalNodes>
          <leafValues>
            3.6073982715606689e-01 -1.2816321849822998e-01</leafValues></_>
        <_>
          <internalNodes>
            0 -1 255 1.6909247264266014e-02</internalNodes>
          <leafValues>
            -8.3134986460208893e-02 5.3309953212738037e-01</leafValues></_>
        <_>
          <internalNodes>
            0 -1 104 -2.1613158285617828e-02</internalNodes>
          <leafValues>
            -5.1794141530990601e-01 9.3744754791259766e-02</leafValues></_>
        <_>
          <internalNodes>
            0 -1 242 1.9222360104322433e-02</internalNodes>
          <leafValues>
            7.8333042562007904e-02 -5.5088686943054199e-01</leafValues></_>
        <_>
          <internalNodes>
            0 -1 42 -1.1007245630025864e-02</internalNodes>
          <leafValues>
            5.2484792470932007e-01 -9.4371043145656586e-02</leafValues></_>
        <_>
          <internalNodes>
            0 -1 364 3.6831850593443960e-05</internalNodes>
          <leafValues>
            2.0429126918315887e-01 -2.3584540188312531e-01</leafValues></_>
        <_>
          <internalNodes>
            0 -1 112 -1.8036196008324623e-02</internalNodes>
          <leafValues>
            4.0767472982406616e-01 -1.1553444713354111e-01</leafValues></_>
        <_>
          <internalNodes>
            0 -1 379 9.6200361440423876e-05</internalNodes>
          <leafValues>
            1.8992657959461212e-01 -2.7336686849594116e-01</leafValues></_>
        <_>
          <internalNodes>
            0 -1 51 4.4769871234893799e-01</internalNodes>
          <leafValues>
            -1.0334184020757675e-01 5.3341174125671387e-01</leafValues></_>
        <_>
          <internalNodes>
            0 -1 273 -6.6122785210609436e-04</internalNodes>
          <leafValues>
            3.5654336214065552e-01 -1.5068136155605316e-01</leafValues></_>
        <_>
          <internalNodes>
            0 -1 247 -7.9816213110461831e-04</internalNodes>
          <leafValues>
            3.7567108869552612e-01 -1.2490990757942200e-01</leafValues></_>
        <_>
          <internalNodes>
            0 -1 102 -1.6670931130647659e-02</internalNodes>
          <leafValues>
            -6.5292972326278687e-01 7.3191724717617035e-02</leafValues></_>
        <_>
          <internalNodes>
            0 -1 117 1.5687423292547464e-03</internalNodes>
          <leafValues>
            -2.6682394742965698e-01 1.8101477622985840e-01</leafValues></_>
        <_>
          <internalNodes>
            0 -1 189 1.4825261197984219e-02</internalNodes>
          <leafValues>
            -9.8826669156551361e-02 4.8193195462226868e-01</leafValues></_>
        <_>
          <internalNodes>
            0 -1 374 1.4459021622315049e-04</internalNodes>
          <leafValues>
            1.7452220618724823e-01 -2.7690839767456055e-01</leafValues></_>
        <_>
          <internalNodes>
            0 -1 224 6.6150203347206116e-03</internalNodes>
          <leafValues>
            -1.4371550083160400e-01 3.3211013674736023e-01</leafValues></_>
        <_>
          <internalNodes>
            0 -1 143 7.2268933057785034e-02</internalNodes>
          <leafValues>
            7.5160674750804901e-02 -6.0612016916275024e-01</leafValues></_>
        <_>
          <internalNodes>
            0 -1 209 1.7276045400649309e-03</internalNodes>
          <leafValues>
            -2.7805927395820618e-01 1.8077076971530914e-01</leafValues></_>
        <_>
          <internalNodes>
            0 -1 72 1.1508189141750336e-02</internalNodes>
          <leafValues>
            -1.2622214853763580e-01 3.9477130770683289e-01</leafValues></_>
        <_>
          <internalNodes>
            0 -1 126 -2.3366712033748627e-02</internalNodes>
          <leafValues>
            6.9388347864151001e-01 -6.7181691527366638e-02</leafValues></_>
        <_>
          <internalNodes>
            0 -1 360 3.8478880014736205e-05</internalNodes>
          <leafValues>
            2.0350928604602814e-01 -2.1177788078784943e-01</leafValues></_></weakClassifiers></_>
    <!-- stage 9 -->
    <_>
      <maxWeakCount>25</maxWeakCount>
      <stageThreshold>-1.0188150405883789e+00</stageThreshold>
      <weakClassifiers>
        <_>
          <internalNodes>
            0 -1 48 4.3703515082597733e-02</internalNodes>
          <leafValues>
            -1.8387293815612793e-01 6.3957595825195313e-01</leafValues></_>
        <_>
          <internalNodes>
            0 -1 235 1.1887643486261368e-01</internalNodes>
          <leafValues>
            -1.6430389881134033e-01 4.2804831266403198e-01</leafValues></_>
        <_>
          <internalNodes>
            0 -1 354 -1.4739460311830044e-04</internalNodes>
          <leafValues>
            -3.9739820361137390e-01 1.5791165828704834e-01</leafValues></_>
        <_>
          <internalNodes>
            0 -1 388 4.3587548134382814e-05</internalNodes>
          <leafValues>
            2.1119807660579681e-01 -2.8525149822235107e-01</leafValues></_>
        <_>
          <internalNodes>
            0 -1 334 2.6177592575550079e-02</internalNodes>
          <leafValues>
            -1.0233688354492188e-01 4.7666490077972412e-01</leafValues></_>
        <_>
          <internalNodes>
            0 -1 10 -1.0276430286467075e-02</internalNodes>
          <leafValues>
            4.9436083436012268e-01 -1.2123816460371017e-01</leafValues></_>
        <_>
          <internalNodes>
            0 -1 38 3.6276780068874359e-02</internalNodes>
          <leafValues>
            -8.0598190426826477e-02 8.0880516767501831e-01</leafValues></_>
        <_>
          <internalNodes>
            0 -1 12 4.2587764561176300e-02</internalNodes>
          <leafValues>
            -4.0764946490526199e-02 9.5597136020660400e-01</leafValues></_>
        <_>
          <internalNodes>
            0 -1 389 -7.5962438131682575e-05</internalNodes>
          <leafValues>
            -2.9779615998268127e-01 1.9344961643218994e-01</leafValues></_>
        <_>
          <internalNodes>
            0 -1 332 -3.4223552793264389e-02</internalNodes>
          <leafValues>
            3.6741530895233154e-01 -1.3088878989219666e-01</leafValues></_>
        <_>
          <internalNodes>
            0 -1 372 -2.4303499609231949e-02</internalNodes>
          <leafValues>
            6.6042554378509521e-01 -7.3971636593341827e-02</leafValues></_>
        <_>
          <internalNodes>
            0 -1 213 4.1784729808568954e-02</internalNodes>
          <leafValues>
            5.9577912092208862e-02 -9.0550440549850464e-01</leafValues></_>
        <_>
          <internalNodes>
            0 -1 186 1.9956929609179497e-03</internalNodes>
          <leafValues>
            -1.4192783832550049e-01 3.8253596425056458e-01</leafValues></_>
        <_>
          <internalNodes>
            0 -1 80 -1.8382824957370758e-02</internalNodes>
          <leafValues>
            -4.0666311979293823e-01 1.2566201388835907e-01</leafValues></_>
        <_>
          <internalNodes>
            0 -1 62 8.7194435764104128e-05</internalNodes>
          <leafValues>
            1.3696210086345673e-01 -3.3673945069313049e-01</leafValues></_>
        <_>
          <internalNodes>
            0 -1 86 1.1170633882284164e-01</internalNodes>
          <leafValues>
            6.6725015640258789e-02 -8.4474575519561768e-01</leafValues></_>
        <_>
          <internalNodes>
            0 -1 135 1.5020778775215149e-01</internalNodes>
          <leafValues>
            3.7658661603927612e-02 -8.6747080087661743e-01</leafValues></_>
        <_>
          <internalNodes>
            0 -1 27 1.2975739315152168e-02</internalNodes>
          <leafValues>
            7.3702991008758545e-02 -5.4777061939239502e-01</leafValues></_>
        <_>
          <internalNodes>
            0 -1 253 1.3552462682127953e-02</internalNodes>
          <leafValues>
            6.9559827446937561e-02 -5.6159168481826782e-01</leafValues></_>
        <_>
          <internalNodes>
            0 -1 92 -3.9443023502826691e-02</internalNodes>
          <leafValues>
            2.8067961335182190e-01 -1.5667335689067841e-01</leafValues></_>
        <_>
          <internalNodes>
            0 -1 265 3.2367117702960968e-02</internalNodes>
          <leafValues>
            6.6280089318752289e-02 -8.3016896247863770e-01</leafValues></_>
        <_>
          <internalNodes>
            0 -1 358 -1.9281424582004547e-02</internalNodes>
          <leafValues>
            -5.3980761766433716e-01 6.3166946172714233e-02</leafValues></_>
        <_>
          <internalNodes>
            0 -1 307 -2.0600450225174427e-03</internalNodes>
          <leafValues>
            -6.8460345268249512e-01 5.7222489267587662e-02</leafValues></_>
        <_>
          <internalNodes>
            0 -1 210 1.5982806216925383e-03</internalNodes>
          <leafValues>
            -2.1105080842971802e-01 2.1983668208122253e-01</leafValues></_>
        <_>
          <internalNodes>
            0 -1 232 1.9956499338150024e-02</internalNodes>
          <leafValues>
            -1.9776144623756409e-01 2.3946020007133484e-01</leafValues></_></weakClassifiers></_>
    <!-- stage 10 -->
    <_>
      <maxWeakCount>29</maxWeakCount>
      <stageThreshold>-1.1154026985168457e+00</stageThreshold>
      <weakClassifiers>
        <_>
          <internalNodes>
            0 -1 254 -4.8440359532833099e-02</internalNodes>
          <leafValues>
            6.4133739471435547e-01 -2.0804525911808014e-01</leafValues></_>
        <_>
          <internalNodes>
            0 -1 64 1.0837901383638382e-02</internalNodes>
          <leafValues>
            -2.6320886611938477e-01 2.6915842294692993e-01</leafValues></_>
        <_>
          <internalNodes>
            0 -1 359 -8.4083098045084625e-05</internalNodes>
          <leafValues>
            -4.0135654807090759e-01 1.5394900739192963e-01</leafValues></_>
        <_>
          <internalNodes>
            0 -1 359 7.5981297413818538e-05</internalNodes>
          <leafValues>
            1.9233511388301849e-01 -4.0617537498474121e-01</leafValues></_>
        <_>
          <internalNodes>
            0 -1 127 -2.6998549699783325e-02</internalNodes>
          <leafValues>
            5.4378277063369751e-01 -1.1209716647863388e-01</leafValues></_>
        <_>
          <internalNodes>
            0 -1 229 -4.6905330382287502e-03</internalNodes>
          <leafValues>
            2.2296588122844696e-01 -2.7320459485054016e-01</leafValues></_>
        <_>
          <internalNodes>
            0 -1 279 5.7595088146626949e-03</internalNodes>
          <leafValues>
            -1.8365296721458435e-01 2.7828577160835266e-01</leafValues></_>
        <_>
          <internalNodes>
            0 -1 191 -3.3792033791542053e-02</internalNodes>
          <leafValues>
            -5.3574413061141968e-01 1.0069717466831207e-01</leafValues></_>
        <_>
          <internalNodes>
            0 -1 269 1.6157653881236911e-03</internalNodes>
          <leafValues>
            -9.6991121768951416e-02 5.5535477399826050e-01</leafValues></_>
        <_>
          <internalNodes>
            0 -1 293 2.4100882001221180e-03</internalNodes>
          <leafValues>
            -1.1437977850437164e-01 4.4142517447471619e-01</leafValues></_>
        <_>
          <internalNodes>
            0 -1 1 8.3716106018982828e-05</internalNodes>
          <leafValues>
            1.8993730843067169e-01 -2.6571372151374817e-01</leafValues></_>
        <_>
          <internalNodes>
            0 -1 261 -7.6351150870323181e-02</internalNodes>
          <leafValues>
            5.2243453264236450e-01 -9.6742689609527588e-02</leafValues></_>
        <_>
          <internalNodes>
            0 -1 81 1.0926652699708939e-02</internalNodes>
          <leafValues>
            -2.1831583976745605e-01 2.6895457506179810e-01</leafValues></_>
        <_>
          <internalNodes>
            0 -1 295 1.2265630066394806e-03</internalNodes>
          <leafValues>
            -1.3546717166900635e-01 3.5322895646095276e-01</leafValues></_>
        <_>
          <internalNodes>
            0 -1 325 -2.6062913239002228e-03</internalNodes>
          <leafValues>
            3.4023046493530273e-01 -1.4995290338993073e-01</leafValues></_>
        <_>
          <internalNodes>
            0 -1 333 -3.0646856874227524e-02</internalNodes>
          <leafValues>
            -6.9113469123840332e-01 7.4851535260677338e-02</leafValues></_>
        <_>
          <internalNodes>
            0 -1 205 2.1329992450773716e-03</internalNodes>
          <leafValues>
            -7.7838115394115448e-02 6.4527225494384766e-01</leafValues></_>
        <_>
          <internalNodes>
            0 -1 108 7.1584284305572510e-03</internalNodes>
          <leafValues>
            1.1684955656528473e-01 -4.2467096447944641e-01</leafValues></_>
        <_>
          <internalNodes>
            0 -1 278 -4.6399533748626709e-03</internalNodes>
          <leafValues>
            3.6060354113578796e-01 -1.2077073752880096e-01</leafValues></_>
        <_>
          <internalNodes>
            0 -1 383 1.0815563797950745e-01</internalNodes>
          <leafValues>
            -5.7163324207067490e-02 7.7678984403610229e-01</leafValues></_>
        <_>
          <internalNodes>
            0 -1 251 1.5833855140954256e-03</internalNodes>
          <leafValues>
            -1.7447710037231445e-01 2.5875765085220337e-01</leafValues></_>
        <_>
          <internalNodes>
            0 -1 378 -2.2332811728119850e-02</internalNodes>
          <leafValues>
            -5.7494544982910156e-01 7.6461814343929291e-02</leafValues></_>
        <_>
          <internalNodes>
            0 -1 25 -1.5733182430267334e-02</internalNodes>
          <leafValues>
            -6.4338350296020508e-01 5.6633014231920242e-02</leafValues></_>
        <_>
          <internalNodes>
            0 -1 91 -1.0958435013890266e-02</internalNodes>
          <leafValues>
            3.1369239091873169e-01 -1.4567874372005463e-01</leafValues></_>
        <_>
          <internalNodes>
            0 -1 199 -4.5605752617120743e-02</internalNodes>
          <leafValues>
            3.7063354253768921e-01 -1.1856695264577866e-01</leafValues></_>
        <_>
          <internalNodes>
            0 -1 196 2.3041378706693649e-02</internalNodes>
          <leafValues>
            7.6494447886943817e-02 -5.8745580911636353e-01</leafValues></_>
        <_>
          <internalNodes>
            0 -1 60 1.1858150362968445e-01</internalNodes>
          <leafValues>
            -1.0755566507577896e-01 4.2882826924324036e-01</leafValues></_>
        <_>
          <internalNodes>
            0 -1 146 8.3820847794413567e-03</internalNodes>
          <leafValues>
            2.5308188796043396e-01 -1.9955796003341675e-01</leafValues></_>
        <_>
          <internalNodes>
            0 -1 286 -1.8310630694031715e-02</internalNodes>
          <leafValues>
            -8.8179433345794678e-01 6.2999188899993896e-02</leafValues></_></weakClassifiers></_>
    <!-- stage 11 -->
    <_>
      <maxWeakCount>25</maxWeakCount>
      <stageThreshold>-1.0337268114089966e+00</stageThreshold>
      <weakClassifiers>
        <_>
          <internalNodes>
            0 -1 48 5.1153101027011871e-02</internalNodes>
          <leafValues>
            -1.6656926274299622e-01 7.8947371244430542e-01</leafValues></_>
        <_>
          <internalNodes>
            0 -1 321 4.7075971961021423e-02</internalNodes>
          <leafValues>
            -1.9582326710224152e-01 3.6983931064605713e-01</leafValues></_>
        <_>
          <internalNodes>
            0 -1 389 1.3617379408970010e-05</internalNodes>
          <leafValues>
            2.7856555581092834e-01 -2.8760829567909241e-01</leafValues></_>
        <_>
          <internalNodes>
            0 -1 63 7.6848510652780533e-03</internalNodes>
          <leafValues>
            -3.1518116593360901e-01 2.3656365275382996e-01</leafValues></_>
        <_>
          <internalNodes>
            0 -1 291 -2.2198364604264498e-03</internalNodes>
          <leafValues>
            6.9533783197402954e-01 -5.8747343719005585e-02</leafValues></_>
        <_>
          <internalNodes>
            0 -1 174 -1.0979904979467392e-01</internalNodes>
          <leafValues>
            6.2482398748397827e-01 -9.1570347547531128e-02</leafValues></_>
        <_>
          <internalNodes>
            0 -1 88 -8.0897454172372818e-03</internalNodes>
          <leafValues>
            3.3630511164665222e-01 -1.7120616137981415e-01</leafValues></_>
        <_>
          <internalNodes>
            0 -1 207 1.2083509936928749e-03</internalNodes>
          <leafValues>
            -9.2413946986198425e-02 5.4491955041885376e-01</leafValues></_>
        <_>
          <internalNodes>
            0 -1 389 -5.7502293202560395e-05</internalNodes>
          <leafValues>
            -2.9155221581459045e-01 2.1138319373130798e-01</leafValues></_>
        <_>
          <internalNodes>
            0 -1 394 -2.5255046784877777e-02</internalNodes>
          <leafValues>
            6.2628012895584106e-01 -1.5350377559661865e-01</leafValues></_>
        <_>
          <internalNodes>
            0 -1 237 -1.3324485626071692e-03</internalNodes>
          <leafValues>
            4.2979967594146729e-01 -9.2403545975685120e-02</leafValues></_>
        <_>
          <internalNodes>
            0 -1 99 -1.5751385944895446e-04</internalNodes>
          <leafValues>
            2.0771770179271698e-01 -2.5686308741569519e-01</leafValues></_>
        <_>
          <internalNodes>
            0 -1 121 -4.4097141362726688e-03</internalNodes>
          <leafValues>
            3.3270528912544250e-01 -1.6711530089378357e-01</leafValues></_>
        <_>
          <internalNodes>
            0 -1 225 -6.5091801807284355e-03</internalNodes>
          <leafValues>
            4.2799153923988342e-01 -1.3704758882522583e-01</leafValues></_>
        <_>
          <internalNodes>
            0 -1 67 1.0622681677341461e-01</internalNodes>
          <leafValues>
            -8.2364477217197418e-02 5.7480496168136597e-01</leafValues></_>
        <_>
          <internalNodes>
            0 -1 353 -1.2787925079464912e-03</internalNodes>
          <leafValues>
            -5.2285206317901611e-01 1.1163710057735443e-01</leafValues></_>
        <_>
          <internalNodes>
            0 -1 28 -3.5547748208045959e-02</internalNodes>
          <leafValues>
            -6.0358214378356934e-01 6.8987354636192322e-02</leafValues></_>
        <_>
          <internalNodes>
            0 -1 267 -7.6500995783135295e-04</internalNodes>
          <leafValues>
            3.5095107555389404e-01 -1.4104139804840088e-01</leafValues></_>
        <_>
          <internalNodes>
            0 -1 39 4.4770585373044014e-03</internalNodes>
          <leafValues>
            1.6350929439067841e-01 -2.9778581857681274e-01</leafValues></_>
        <_>
          <internalNodes>
            0 -1 120 -2.8197558596730232e-02</internalNodes>
          <leafValues>
            -7.8566104173660278e-01 6.0038801282644272e-02</leafValues></_>
        <_>
          <internalNodes>
            0 -1 172 -1.1663530021905899e-03</internalNodes>
          <leafValues>
            3.3672228455543518e-01 -1.5242946147918701e-01</leafValues></_>
        <_>
          <internalNodes>
            0 -1 336 7.0830676122568548e-05</internalNodes>
          <leafValues>
            2.0223699510097504e-01 -2.4206601083278656e-01</leafValues></_>
        <_>
          <internalNodes>
            0 -1 130 -2.1285755559802055e-02</internalNodes>
          <leafValues>
            -5.1533567905426025e-01 9.1624781489372253e-02</leafValues></_>
        <_>
          <internalNodes>
            0 -1 184 2.0506097935140133e-03</internalNodes>
          <leafValues>
            -1.7899315059185028e-01 3.0655661225318909e-01</leafValues></_>
        <_>
          <internalNodes>
            0 -1 323 3.8554586353711784e-05</internalNodes>
          <leafValues>
            2.2806194424629211e-01 -2.1435356140136719e-01</leafValues></_></weakClassifiers></_>
    <!-- stage 12 -->
    <_>
      <maxWeakCount>37</maxWeakCount>
      <stageThreshold>-1.1103576421737671e+00</stageThreshold>
      <weakClassifiers>
        <_>
          <internalNodes>
            0 -1 43 1.3945840299129486e-02</internalNodes>
          <leafValues>
            -1.6114020347595215e-01 7.8109455108642578e-01</leafValues></_>
        <_>
          <internalNodes>
            0 -1 18 1.7434281110763550e-01</internalNodes>
          <leafValues>
            -2.8038796782493591e-01 2.8109830617904663e-01</leafValues></_>
        <_>
          <internalNodes>
            0 -1 12 1.8207622691988945e-02</internalNodes>
          <leafValues>
            -1.2413974851369858e-01 6.4634317159652710e-01</leafValues></_>
        <_>
          <internalNodes>
            0 -1 41 1.8581701442599297e-03</internalNodes>
          <leafValues>
            1.7278108000755310e-01 -2.7178946137428284e-01</leafValues></_>
        <_>
          <internalNodes>
            0 -1 398 3.6585748603101820e-05</internalNodes>
          <leafValues>
            1.8838015198707581e-01 -2.5815245509147644e-01</leafValues></_>
        <_>
          <internalNodes>
            0 -1 398 -3.9607431972399354e-05</internalNodes>
          <leafValues>
            -2.2008015215396881e-01 2.3395770788192749e-01</leafValues></_>
        <_>
          <internalNodes>
            0 -1 183 2.6343227364122868e-03</internalNodes>
          <leafValues>
            -1.2912914156913757e-01 4.7444880008697510e-01</leafValues></_>
        <_>
          <internalNodes>
            0 -1 168 1.2074706144630909e-02</internalNodes>
          <leafValues>
            6.8158261477947235e-02 -5.9570646286010742e-01</leafValues></_>
        <_>
          <internalNodes>
            0 -1 241 3.6244295537471771e-02</internalNodes>
          <leafValues>
            4.3494116514921188e-02 -8.7012881040573120e-01</leafValues></_>
        <_>
          <internalNodes>
            0 -1 159 3.7062816321849823e-02</internalNodes>
          <leafValues>
            4.4956713914871216e-02 -7.3900055885314941e-01</leafValues></_>
        <_>
          <internalNodes>
            0 -1 161 6.4577953889966011e-03</internalNodes>
          <leafValues>
            -1.3703182339668274e-01 3.3943551778793335e-01</leafValues></_>
        <_>
          <internalNodes>
            0 -1 3 4.3835472315549850e-02</internalNodes>
          <leafValues>
            -5.6332424283027649e-02 6.4397752285003662e-01</leafValues></_>
        <_>
          <internalNodes>
            0 -1 340 4.3784558773040771e-02</internalNodes>
          <leafValues>
            -1.8787468969821930e-01 2.2450761497020721e-01</leafValues></_>
        <_>
          <internalNodes>
            0 -1 373 3.7487156077986583e-05</internalNodes>
          <leafValues>
            1.6953556239604950e-01 -2.7531033754348755e-01</leafValues></_>
        <_>
          <internalNodes>
            0 -1 311 -5.3084627725183964e-03</internalNodes>
          <leafValues>
            6.9112342596054077e-01 -7.0560716092586517e-02</leafValues></_>
        <_>
          <internalNodes>
            0 -1 170 -1.8570292741060257e-02</internalNodes>
          <leafValues>
            5.9825235605239868e-01 -6.9740399718284607e-02</leafValues></_>
        <_>
          <internalNodes>
            0 -1 206 -1.9042681902647018e-02</internalNodes>
          <leafValues>
            -6.6204273700714111e-01 6.6548958420753479e-02</leafValues></_>
        <_>
          <internalNodes>
            0 -1 382 -1.5261996304616332e-04</internalNodes>
          <leafValues>
            -2.8710436820983887e-01 1.3633771240711212e-01</leafValues></_>
        <_>
          <internalNodes>
            0 -1 312 -1.0123717365786433e-03</internalNodes>
          <leafValues>
            3.0960753560066223e-01 -1.2872380018234253e-01</leafValues></_>
        <_>
          <internalNodes>
            0 -1 29 -1.5390343964099884e-02</internalNodes>
          <leafValues>
            -4.7930911183357239e-01 8.0064006149768829e-02</leafValues></_>
        <_>
          <internalNodes>
            0 -1 384 -3.0525730835506693e-05</internalNodes>
          <leafValues>
            -2.2447505593299866e-01 1.6992466151714325e-01</leafValues></_>
        <_>
          <internalNodes>
            0 -1 90 8.6191017180681229e-03</internalNodes>
          <leafValues>
            -1.3592964410781860e-01 3.0870017409324646e-01</leafValues></_>
        <_>
          <internalNodes>
            0 -1 326 -2.7735889889299870e-03</internalNodes>
          <leafValues>
            -4.6181628108024597e-01 8.0903857946395874e-02</leafValues></_>
        <_>
          <internalNodes>
            0 -1 128 -4.0531322360038757e-02</internalNodes>
          <leafValues>
            4.1711965203285217e-01 -8.8977672159671783e-02</leafValues></_>
        <_>
          <internalNodes>
            0 -1 59 -5.2519209682941437e-02</internalNodes>
          <leafValues>
            2.9674521088600159e-01 -1.3668516278266907e-01</leafValues></_>
        <_>
          <internalNodes>
            0 -1 31 1.3967376947402954e-01</internalNodes>
          <leafValues>
            -1.0536821186542511e-01 3.9784726500511169e-01</leafValues></_>
        <_>
          <internalNodes>
            0 -1 166 -5.9659052640199661e-03</internalNodes>
          <leafValues>
            3.7295585870742798e-01 -1.0757733136415482e-01</leafValues></_>
        <_>
          <internalNodes>
            0 -1 132 5.9747234918177128e-03</internalNodes>
          <leafValues>
            -8.5168533027172089e-02 4.4887253642082214e-01</leafValues></_>
        <_>
          <internalNodes>
            0 -1 343 8.0967098474502563e-03</internalNodes>
          <leafValues>
            6.9594673812389374e-02 -6.0998135805130005e-01</leafValues></_>
        <_>
          <internalNodes>
            0 -1 175 4.1677383705973625e-03</internalNodes>
          <leafValues>
            6.0912959277629852e-02 -5.3732490539550781e-01</leafValues></_>
        <_>
          <internalNodes>
            0 -1 94 -6.1015218496322632e-01</internalNodes>
          <leafValues>
            9.2132282257080078e-01 -4.7905325889587402e-02</leafValues></_>
        <_>
          <internalNodes>
            0 -1 184 -2.1016080863773823e-03</internalNodes>
          <leafValues>
            3.3055919408798218e-01 -1.1281295865774155e-01</leafValues></_>
        <_>
          <internalNodes>
            0 -1 144 -5.5612844880670309e-04</internalNodes>
          <leafValues>
            -3.0164968967437744e-01 1.2992499768733978e-01</leafValues></_>
        <_>
          <internalNodes>
            0 -1 257 -3.2246567308902740e-02</internalNodes>
          <leafValues>
            4.6279862523078918e-01 -8.8468566536903381e-02</leafValues></_>
        <_>
          <internalNodes>
            0 -1 259 2.0548112690448761e-02</internalNodes>
          <leafValues>
            -1.3751745223999023e-01 2.9510676860809326e-01</leafValues></_>
        <_>
          <internalNodes>
            0 -1 190 2.2089295089244843e-02</internalNodes>
          <leafValues>
            6.5241843461990356e-02 -6.1375421285629272e-01</leafValues></_>
        <_>
          <internalNodes>
            0 -1 79 1.6596900299191475e-02</internalNodes>
          <leafValues>
            3.8771316409111023e-02 -8.1967163085937500e-01</leafValues></_></weakClassifiers></_>
    <!-- stage 13 -->
    <_>
      <maxWeakCount>33</maxWeakCount>
      <stageThreshold>-1.1100564002990723e+00</stageThreshold>
      <weakClassifiers>
        <_>
          <internalNodes>
            0 -1 302 -6.0137432068586349e-02</internalNodes>
          <leafValues>
            6.1661344766616821e-01 -1.9477286934852600e-01</leafValues></_>
        <_>
          <internalNodes>
            0 -1 0 -5.8135723520535976e-05</internalNodes>
          <leafValues>
            -3.4063902497291565e-01 2.1199432015419006e-01</leafValues></_>
        <_>
          <internalNodes>
            0 -1 308 -2.7694329619407654e-03</internalNodes>
          <leafValues>
            2.0776444673538208e-01 -2.4718518555164337e-01</leafValues></_>
        <_>
          <internalNodes>
            0 -1 268 -9.9495472386479378e-04</internalNodes>
          <leafValues>
            4.0572103857994080e-01 -1.5725237131118774e-01</leafValues></_>
        <_>
          <internalNodes>
            0 -1 385 -1.8668886274099350e-02</internalNodes>
          <leafValues>
            6.4826315641403198e-01 -5.5833742022514343e-02</leafValues></_>
        <_>
          <internalNodes>
            0 -1 202 -1.0100099258124828e-02</internalNodes>
          <leafValues>
            3.0291959643363953e-01 -1.5948307514190674e-01</leafValues></_>
        <_>
          <internalNodes>
            0 -1 0 6.3645878981333226e-05</internalNodes>
          <leafValues>
            2.1708211302757263e-01 -3.1373369693756104e-01</leafValues></_>
        <_>
          <internalNodes>
            0 -1 272 2.3214931134134531e-03</internalNodes>
          <leafValues>
            -1.0721012204885483e-01 5.8807438611984253e-01</leafValues></_>
        <_>
          <internalNodes>
            0 -1 149 6.7659541964530945e-02</internalNodes>
          <leafValues>
            7.1287408471107483e-02 -8.1318742036819458e-01</leafValues></_>
        <_>
          <internalNodes>
            0 -1 258 -1.4414621517062187e-02</internalNodes>
          <leafValues>
            -6.7886871099472046e-01 5.2863601595163345e-02</leafValues></_>
        <_>
          <internalNodes>
            0 -1 176 2.7613742277026176e-03</internalNodes>
          <leafValues>
            8.3579130470752716e-02 -5.3945666551589966e-01</leafValues></_>
        <_>
          <internalNodes>
            0 -1 287 -4.8446696018800139e-04</internalNodes>
          <leafValues>
            2.5205963850021362e-01 -1.8347366154193878e-01</leafValues></_>
        <_>
          <internalNodes>
            0 -1 266 1.3754472136497498e-02</internalNodes>
          <leafValues>
            8.7875917553901672e-02 -6.1170500516891479e-01</leafValues></_>
        <_>
          <internalNodes>
            0 -1 243 1.5229627024382353e-03</internalNodes>
          <leafValues>
            -1.1725755780935287e-01 4.1944453120231628e-01</leafValues></_>
        <_>
          <internalNodes>
            0 -1 296 2.8932951390743256e-02</internalNodes>
          <leafValues>
            6.5412409603595734e-02 -7.7002358436584473e-01</leafValues></_>
        <_>
          <internalNodes>
            0 -1 69 1.0501090582692996e-04</internalNodes>
          <leafValues>
            1.5039861202239990e-01 -2.4268281459808350e-01</leafValues></_>
        <_>
          <internalNodes>
            0 -1 180 9.9476370960474014e-03</internalNodes>
          <leafValues>
            4.9606811255216599e-02 -8.9965045452117920e-01</leafValues></_>
        <_>
          <internalNodes>
            0 -1 49 -1.0436360025778413e-04</internalNodes>
          <leafValues>
            -2.2768412530422211e-01 1.6358965635299683e-01</leafValues></_>
        <_>
          <internalNodes>
            0 -1 84 1.3420331478118896e-01</internalNodes>
          <leafValues>
            -8.6318902671337128e-02 5.2810305356979370e-01</leafValues></_>
        <_>
          <internalNodes>
            0 -1 113 9.2299982905387878e-02</internalNodes>
          <leafValues>
            -1.1979174613952637e-01 3.7963429093360901e-01</leafValues></_>
        <_>
          <internalNodes>
            0 -1 335 3.0400685500353575e-03</internalNodes>
          <leafValues>
            -8.3951309323310852e-02 5.4222053289413452e-01</leafValues></_>
        <_>
          <internalNodes>
            0 -1 223 2.1780803799629211e-02</internalNodes>
          <leafValues>
            7.4287280440330505e-02 -6.6821199655532837e-01</leafValues></_>
        <_>
          <internalNodes>
            0 -1 263 -1.1876118183135986e-01</internalNodes>
          <leafValues>
            6.2860006093978882e-01 -8.3884499967098236e-02</leafValues></_>
        <_>
          <internalNodes>
            0 -1 275 -3.6185402423143387e-03</internalNodes>
          <leafValues>
            3.4241506457328796e-01 -1.1858871579170227e-01</leafValues></_>
        <_>
          <internalNodes>
            0 -1 171 -2.1295499056577682e-02</internalNodes>
          <leafValues>
            6.2329834699630737e-01 -7.5262792408466339e-02</leafValues></_>
        <_>
          <internalNodes>
            0 -1 103 2.3643532767891884e-02</internalNodes>
          <leafValues>
            9.2026039958000183e-02 -5.1895409822463989e-01</leafValues></_>
        <_>
          <internalNodes>
            0 -1 145 -2.2006083279848099e-02</internalNodes>
          <leafValues>
            5.6062078475952148e-01 -8.1926308572292328e-02</leafValues></_>
        <_>
          <internalNodes>
            0 -1 163 -1.0388004593551159e-03</internalNodes>
          <leafValues>
            4.6838936209678650e-01 -9.5583960413932800e-02</leafValues></_>
        <_>
          <internalNodes>
            0 -1 264 -5.5275868362514302e-05</internalNodes>
          <leafValues>
            2.2864091396331787e-01 -1.9711220264434814e-01</leafValues></_>
        <_>
          <internalNodes>
            0 -1 304 -2.3570819757878780e-03</internalNodes>
          <leafValues>
            2.7323913574218750e-01 -1.6816636919975281e-01</leafValues></_>
        <_>
          <internalNodes>
            0 -1 370 9.7229632956441492e-05</internalNodes>
          <leafValues>
            1.9118303060531616e-01 -2.5057393312454224e-01</leafValues></_>
        <_>
          <internalNodes>
            0 -1 19 7.5295977294445038e-03</internalNodes>
          <leafValues>
            5.2728988230228424e-02 -6.8239414691925049e-01</leafValues></_>
        <_>
          <internalNodes>
            0 -1 351 1.3995074550621212e-04</internalNodes>
          <leafValues>
            1.9747214019298553e-01 -1.9814173877239227e-01</leafValues></_></weakClassifiers></_>
    <!-- stage 14 -->
    <_>
      <maxWeakCount>30</maxWeakCount>
      <stageThreshold>-1.1355113983154297e+00</stageThreshold>
      <weakClassifiers>
        <_>
          <internalNodes>
            0 -1 366 -3.1664013862609863e-02</internalNodes>
          <leafValues>
            6.3157892227172852e-01 -1.9306930899620056e-01</leafValues></_>
        <_>
          <internalNodes>
            0 -1 111 3.0658539384603500e-02</internalNodes>
          <leafValues>
            -1.5244506299495697e-01 4.1931024193763733e-01</leafValues></_>
        <_>
          <internalNodes>
            0 -1 110 -3.3280855859629810e-05</internalNodes>
          <leafValues>
            -3.0370891094207764e-01 1.9122974574565887e-01</leafValues></_>
        <_>
          <internalNodes>
            0 -1 201 -1.8306095153093338e-03</internalNodes>
          <leafValues>
            2.2922964394092560e-01 -2.3650451004505157e-01</leafValues></_>
        <_>
          <internalNodes>
            0 -1 396 3.0582203180529177e-05</internalNodes>
          <leafValues>
            1.9524815678596497e-01 -3.1543305516242981e-01</leafValues></_>
        <_>
          <internalNodes>
            0 -1 26 -2.5273952633142471e-02</internalNodes>
          <leafValues>
            2.1938894689083099e-01 -2.1090792119503021e-01</leafValues></_>
        <_>
          <internalNodes>
            0 -1 75 -1.9484163203742355e-04</internalNodes>
          <leafValues>
            -2.3869624733924866e-01 2.4700447916984558e-01</leafValues></_>
        <_>
          <internalNodes>
            0 -1 319 5.5782822892069817e-03</internalNodes>
          <leafValues>
            -7.7558718621730804e-02 5.4443114995956421e-01</leafValues></_>
        <_>
          <internalNodes>
            0 -1 310 1.2003520969301462e-03</internalNodes>
          <leafValues>
            -1.0802877694368362e-01 4.8761853575706482e-01</leafValues></_>
        <_>
          <internalNodes>
            0 -1 309 1.2554568238556385e-03</internalNodes>
          <leafValues>
            -1.5098011493682861e-01 3.6380606889724731e-01</leafValues></_>
        <_>
          <internalNodes>
            0 -1 318 -4.0952448034659028e-04</internalNodes>
          <leafValues>
            2.9334649443626404e-01 -1.6975437104701996e-01</leafValues></_>
        <_>
          <internalNodes>
            0 -1 352 -2.0170088857412338e-02</internalNodes>
          <leafValues>
            -6.7452001571655273e-01 9.8802223801612854e-02</leafValues></_>
        <_>
          <internalNodes>
            0 -1 347 -2.4851565249264240e-03</internalNodes>
          <leafValues>
            5.4074454307556152e-01 -1.1581939458847046e-01</leafValues></_>
        <_>
          <internalNodes>
            0 -1 66 3.6250893026590347e-04</internalNodes>
          <leafValues>
            2.1086083352565765e-01 -2.3808264732360840e-01</leafValues></_>
        <_>
          <internalNodes>
            0 -1 342 1.1244351044297218e-02</internalNodes>
          <leafValues>
            8.7694466114044189e-02 -7.2119557857513428e-01</leafValues></_>
        <_>
          <internalNodes>
            0 -1 156 -2.1355729550123215e-02</internalNodes>
          <leafValues>
            8.5965353250503540e-01 -7.3260173201560974e-02</leafValues></_>
        <_>
          <internalNodes>
            0 -1 188 -2.9431595467031002e-03</internalNodes>
          <leafValues>
            3.7422239780426025e-01 -1.1962686479091644e-01</leafValues></_>
        <_>
          <internalNodes>
            0 -1 137 -1.1369621381163597e-02</internalNodes>
          <leafValues>
            -4.9475899338722229e-01 1.0841767489910126e-01</leafValues></_>
        <_>
          <internalNodes>
            0 -1 328 7.8395046293735504e-03</internalNodes>
          <leafValues>
            -7.0572726428508759e-02 8.9392149448394775e-01</leafValues></_>
        <_>
          <internalNodes>
            0 -1 240 1.8473614007234573e-02</internalNodes>
          <leafValues>
            6.9286510348320007e-02 -8.4021985530853271e-01</leafValues></_>
        <_>
          <internalNodes>
            0 -1 124 -2.6167266070842743e-02</internalNodes>
          <leafValues>
            4.9551415443420410e-01 -1.2400788068771362e-01</leafValues></_>
        <_>
          <internalNodes>
            0 -1 14 -5.3545194864273071e-01</internalNodes>
          <leafValues>
            7.9151409864425659e-01 -5.4317783564329147e-02</leafValues></_>
        <_>
          <internalNodes>
            0 -1 165 -8.3066895604133606e-03</internalNodes>
          <leafValues>
            4.6312689781188965e-01 -1.0533298552036285e-01</leafValues></_>
        <_>
          <internalNodes>
            0 -1 182 1.5434769447892904e-03</internalNodes>
          <leafValues>
            -8.0439336597919464e-02 6.4744770526885986e-01</leafValues></_>
        <_>
          <internalNodes>
            0 -1 158 5.1569016650319099e-03</internalNodes>
          <leafValues>
            -2.6700296998023987e-01 2.2955128550529480e-01</leafValues></_>
        <_>
          <internalNodes>
            0 -1 54 1.1879837256856263e-04</internalNodes>
          <leafValues>
            2.1233998239040375e-01 -2.7165657281875610e-01</leafValues></_>
        <_>
          <internalNodes>
            0 -1 260 5.3135506808757782e-02</internalNodes>
          <leafValues>
            -1.0441911220550537e-01 5.2528578042984009e-01</leafValues></_>
        <_>
          <internalNodes>
            0 -1 129 -1.0724195744842291e-03</internalNodes>
          <leafValues>
            2.1316701173782349e-01 -2.5176629424095154e-01</leafValues></_>
        <_>
          <internalNodes>
            0 -1 160 3.0180406756699085e-03</internalNodes>
          <leafValues>
            -8.4680311381816864e-02 6.4754593372344971e-01</leafValues></_>
        <_>
          <internalNodes>
            0 -1 119 2.2803332656621933e-02</internalNodes>
          <leafValues>
            1.1631134152412415e-01 -5.5035573244094849e-01</leafValues></_></weakClassifiers></_>
    <!-- stage 15 -->
    <_>
      <maxWeakCount>26</maxWeakCount>
      <stageThreshold>-1.0926655530929565e+00</stageThreshold>
      <weakClassifiers>
        <_>
          <internalNodes>
            0 -1 391 3.8170650601387024e-02</internalNodes>
          <leafValues>
            -2.0912547409534454e-01 6.1403506994247437e-01</leafValues></_>
        <_>
          <internalNodes>
            0 -1 399 3.5777538869297132e-05</internalNodes>
          <leafValues>
            2.1704818308353424e-01 -3.7412032485008240e-01</leafValues></_>
        <_>
          <internalNodes>
            0 -1 215 -1.1504933936521411e-03</internalNodes>
          <leafValues>
            5.0919669866561890e-01 -1.3788394629955292e-01</leafValues></_>
        <_>
          <internalNodes>
            0 -1 365 4.0194197936216369e-05</internalNodes>
          <leafValues>
            2.3802594840526581e-01 -3.1455752253532410e-01</leafValues></_>
        <_>
          <internalNodes>
            0 -1 89 1.2497335672378540e-02</internalNodes>
          <leafValues>
            2.3340897262096405e-01 -3.9775508642196655e-01</leafValues></_>
        <_>
          <internalNodes>
            0 -1 395 3.2772724807728082e-05</internalNodes>
          <leafValues>
            2.0960246026515961e-01 -3.2494190335273743e-01</leafValues></_>
        <_>
          <internalNodes>
            0 -1 350 6.5397369326092303e-05</internalNodes>
          <leafValues>
            3.2254037261009216e-01 -2.1562962234020233e-01</leafValues></_>
        <_>
          <internalNodes>
            0 -1 34 2.4110372178256512e-03</internalNodes>
          <leafValues>
            1.3661830127239227e-01 -5.0522631406784058e-01</leafValues></_>
        <_>
          <internalNodes>
            0 -1 169 1.6681235283613205e-02</internalNodes>
          <leafValues>
            -1.8440490961074829e-01 4.1520079970359802e-01</leafValues></_>
        <_>
          <internalNodes>
            0 -1 125 4.2635798454284668e-03</internalNodes>
          <leafValues>
            -2.0488984882831573e-01 3.8220241665840149e-01</leafValues></_>
        <_>
          <internalNodes>
            0 -1 164 1.5889427158981562e-03</internalNodes>
          <leafValues>
            -1.8396244943141937e-01 4.0118575096130371e-01</leafValues></_>
        <_>
          <internalNodes>
            0 -1 256 3.7331858038669452e-05</internalNodes>
          <leafValues>
            2.6055100560188293e-01 -2.6872614026069641e-01</leafValues></_>
        <_>
          <internalNodes>
            0 -1 230 -9.2417627573013306e-02</internalNodes>
          <leafValues>
            5.9216213226318359e-01 -1.0614769905805588e-01</leafValues></_>
        <_>
          <internalNodes>
            0 -1 95 2.5631143944337964e-04</internalNodes>
          <leafValues>
            2.8797423839569092e-01 -2.5424152612686157e-01</leafValues></_>
        <_>
          <internalNodes>
            0 -1 141 2.8555119037628174e-01</internalNodes>
          <leafValues>
            -1.1062624305486679e-01 8.7313836812973022e-01</leafValues></_>
        <_>
          <internalNodes>
            0 -1 305 7.9911522334441543e-04</internalNodes>
          <leafValues>
            2.4295276403427124e-01 -3.3586776256561279e-01</leafValues></_>
        <_>
          <internalNodes>
            0 -1 197 2.4186922237277031e-03</internalNodes>
          <leafValues>
            2.1297541260719299e-01 -4.1804704070091248e-01</leafValues></_>
        <_>
          <internalNodes>
            0 -1 335 2.0717545412480831e-03</internalNodes>
          <leafValues>
            -1.6091823577880859e-01 5.3466498851776123e-01</leafValues></_>
        <_>
          <internalNodes>
            0 -1 298 1.7748384270817041e-03</internalNodes>
          <leafValues>
            -1.2211915850639343e-01 5.4317623376846313e-01</leafValues></_>
        <_>
          <internalNodes>
            0 -1 344 -2.3488327860832214e-03</internalNodes>
          <leafValues>
            -4.2955619096755981e-01 1.5939800441265106e-01</leafValues></_>
        <_>
          <internalNodes>
            0 -1 9 -1.7441578209400177e-02</internalNodes>
          <leafValues>
            7.3837774991989136e-01 -1.0120255500078201e-01</leafValues></_>
        <_>
          <internalNodes>
            0 -1 337 3.1651124358177185e-02</internalNodes>
          <leafValues>
            -1.0272111743688583e-01 6.3814991712570190e-01</leafValues></_>
        <_>
          <internalNodes>
            0 -1 369 -3.8090835005277768e-05</internalNodes>
          <leafValues>
            -2.4647261202335358e-01 2.5184303522109985e-01</leafValues></_>
        <_>
          <internalNodes>
            0 -1 315 -5.2552901208400726e-02</internalNodes>
          <leafValues>
            7.4943625926971436e-01 -1.0652961581945419e-01</leafValues></_>
        <_>
          <internalNodes>
            0 -1 4 2.0407841075211763e-03</internalNodes>
          <leafValues>
            2.0901162922382355e-01 -3.6509385704994202e-01</leafValues></_>
        <_>
          <internalNodes>
            0 -1 356 1.7829658463597298e-02</internalNodes>
          <leafValues>
            -8.3576947450637817e-02 7.3686200380325317e-01</leafValues></_></weakClassifiers></_></stages>
  <features>
    <_>
      <rects>
        <_>
          0 0 1 2 -1.</_>
        <_>
          0 1 1 1 2.</_></rects>
      <tilted>0</tilted></_>
    <_>
      <rects>
        <_>
          0 0 1 3 -1.</_>
        <_>
          0 1 1 1 3.</_></rects>
      <tilted>0</tilted></_>
    <_>
      <rects>
        <_>
          0 0 1 16 -1.</_>
        <_>
          0 8 1 8 2.</_></rects>
      <tilted>0</tilted></_>
    <_>
      <rects>
        <_>
          0 0 1 24 -1.</_>
        <_>
          0 8 1 8 3.</_></rects>
      <tilted>0</tilted></_>
    <_>
      <rects>
        <_>
          0 0 6 2 -1.</_>
        <_>
          2 0 2 2 3.</_></rects>
      <tilted>0</tilted></_>
    <_>
      <rects>
        <_>
          0 0 4 17 -1.</_>
        <_>
          2 0 2 17 2.</_></rects>
      <tilted>0</tilted></_>
    <_>
      <rects>
        <_>
          0 0 3 12 -1.</_>
        <_>
          0 6 3 6 2.</_></rects>
      <tilted>0</tilted></_>
    <_>
      <rects>
        <_>
          0 0 9 9 -1.</_>
        <_>
          3 0 3 9 3.</_></rects>
      <tilted>0</tilted></_>
    <_>
      <rects>
        <_>
          0 0 12 18 -1.</_>
        <_>
          0 0 6 9 2.</_>
        <_>
          6 9 6 9 2.</_></rects>
      <tilted>0</tilted></_>
    <_>
      <rects>
        <_>
          0 0 18 2 -1.</_>
        <_>
          0 0 9 1 2.</_>
        <_>
          9 1 9 1 2.</_></rects>
      <tilted>0</tilted></_>
    <_>
      <rects>
        <_>
          0 0 10 2 -1.</_>
        <_>
          0 1 10 1 2.</_></rects>
      <tilted>0</tilted></_>
    <_>
      <rects>
        <_>
          0 0 20 6 -1.</_>
        <_>
          0 0 10 3 2.</_>
        <_>
          10 3 10 3 2.</_></rects>
      <tilted>0</tilted></_>
    <_>
      <rects>
        <_>
          0 0 23 2 -1.</_>
        <_>
          0 1 23 1 2.</_></rects>
      <tilted>0</tilted></_>
    <_>
      <rects>
        <_>
          0 1 2 23 -1.</_>
        <_>
          1 1 1 23 2.</_></rects>
      <tilted>0</tilted></_>
    <_>
      <rects>
        <_>
          0 1 21 23 -1.</_>
        <_>
          7 1 7 23 3.</_></rects>
      <tilted>0</tilted></_>
    <_>
      <rects>
        <_>
          0 1 16 6 -1.</_>
        <_>
          0 1 8 3 2.</_>
        <_>
          8 4 8 3 2.</_></rects>
      <tilted>0</tilted></_>
    <_>
      <rects>
        <_>
          0 2 24 16 -1.</_>
        <_>
          0 10 24 8 2.</_></rects>
      <tilted>0</tilted></_>
    <_>
      <rects>
        <_>
          0 3 3 8 -1.</_>
        <_>
          1 3 1 8 3.</_></rects>
      <tilted>0</tilted></_>
    <_>
      <rects>
        <_>
          0 3 24 14 -1.</_>
        <_>
          0 10 24 7 2.</_></rects>
      <tilted>0</tilted></_>
    <_>
      <rects>
        <_>
          0 4 8 2 -1.</_>
        <_>
          0 5 8 1 2.</_></rects>
      <tilted>0</tilted></_>
    <_>
      <rects>
        <_>
          0 4 20 11 -1.</_>
        <_>
          10 4 10 11 2.</_></rects>
      <tilted>0</tilted></_>
    <_>
      <rects>
        <_>
          0 4 12 3 -1.</_>
        <_>
          0 5 12 1 3.</_></rects>
      <tilted>0</tilted></_>
    <_>
      <rects>
        <_>
          0 5 8 14 -1.</_>
        <_>
          4 5 4 14 2.</_></rects>
      <tilted>0</tilted></_>
    <_>
      <rects>
        <_>
          0 5 10 12 -1.</_>
        <_>
          5 5 5 12 2.</_></rects>
      <tilted>0</tilted></_>
    <_>
      <rects>
        <_>
          0 5 7 6 -1.</_>
        <_>
          0 7 7 2 3.</_></rects>
      <tilted>0</tilted></_>
    <_>
      <rects>
        <_>
          0 5 13 3 -1.</_>
        <_>
          0 6 13 1 3.</_></rects>
      <tilted>0</tilted></_>
    <_>
      <rects>
        <_>
          0 6 10 10 -1.</_>
        <_>
          5 6 5 10 2.</_></rects>
      <tilted>0</tilted></_>
    <_>
      <rects>
        <_>
          0 7 4 6 -1.</_>
        <_>
          0 9 4 2 3.</_></rects>
      <tilted>0</tilted></_>
    <_>
      <rects>
        <_>
          0 7 12 8 -1.</_>
        <_>
          0 7 6 4 2.</_>
        <_>
          6 11 6 4 2.</_></rects>
      <tilted>0</tilted></_>
    <_>
      <rects>
        <_>
          0 8 3 9 -1.</_>
        <_>
          0 11 3 3 3.</_></rects>
      <tilted>0</tilted></_>
    <_>
      <rects>
        <_>
          0 8 12 9 -1.</_>
        <_>
          6 8 6 9 2.</_></rects>
      <tilted>0</tilted></_>
    <_>
      <rects>
        <_>
          0 8 18 15 -1.</_>
        <_>
          9 8 9 15 2.</_></rects>
      <tilted>0</tilted></_>
    <_>
      <rects>
        <_>
          0 8 10 6 -1.</_>
        <_>
          0 11 10 3 2.</_></rects>
      <tilted>0</tilted></_>
    <_>
      <rects>
        <_>
          0 8 20 15 -1.</_>
        <_>
          10 8 10 15 2.</_></rects>
      <tilted>0</tilted></_>
    <_>
      <rects>
        <_>
          0 9 2 6 -1.</_>
        <_>
          1 9 1 6 2.</_></rects>
      <tilted>0</tilted></_>
    <_>
      <rects>
        <_>
          0 11 18 12 -1.</_>
        <_>
          9 11 9 12 2.</_></rects>
      <tilted>0</tilted></_>
    <_>
      <rects>
        <_>
          0 12 3 1 -1.</_>
        <_>
          1 12 1 1 3.</_></rects>
      <tilted>0</tilted></_>
    <_>
      <rects>
        <_>
          0 12 2 10 -1.</_>
        <_>
          0 12 1 5 2.</_>
        <_>
          1 17 1 5 2.</_></rects>
      <tilted>0</tilted></_>
    <_>
      <rects>
        <_>
          0 16 4 8 -1.</_>
        <_>
          2 16 2 8 2.</_></rects>
      <tilted>0</tilted></_>
    <_>
      <rects>
        <_>
          0 17 4 6 -1.</_>
        <_>
          0 19 4 2 3.</_></rects>
      <tilted>0</tilted></_>
    <_>
      <rects>
        <_>
          0 20 1 2 -1.</_>
        <_>
          0 21 1 1 2.</_></rects>
      <tilted>0</tilted></_>
    <_>
      <rects>
        <_>
          0 20 8 2 -1.</_>
        <_>
          4 20 4 2 2.</_></rects>
      <tilted>0</tilted></_>
    <_>
      <rects>
        <_>
          0 21 10 2 -1.</_>
        <_>
          0 22 10 1 2.</_></rects>
      <tilted>0</tilted></_>
    <_>
      <rects>
        <_>
          0 22 8 1 -1.</_>
        <_>
          4 22 4 1 2.</_></rects>
      <tilted>0</tilted></_>
    <_>
      <rects>
        <_>
          0 22 16 2 -1.</_>
        <_>
          0 22 8 1 2.</_>
        <_>
          8 23 8 1 2.</_></rects>
      <tilted>0</tilted></_>
    <_>
      <rects>
        <_>
          0 22 21 2 -1.</_>
        <_>
          0 23 21 1 2.</_></rects>
      <tilted>0</tilted></_>
    <_>
      <rects>
        <_>
          0 22 22 2 -1.</_>
        <_>
          0 23 22 1 2.</_></rects>
      <tilted>0</tilted></_>
    <_>
      <rects>
        <_>
          0 23 10 1 -1.</_>
        <_>
          5 23 5 1 2.</_></rects>
      <tilted>0</tilted></_>
    <_>
      <rects>
        <_>
          0 23 24 1 -1.</_>
        <_>
          8 23 8 1 3.</_></rects>
      <tilted>0</tilted></_>
    <_>
      <rects>
        <_>
          1 0 1 8 -1.</_>
        <_>
          1 4 1 4 2.</_></rects>
      <tilted>0</tilted></_>
    <_>
      <rects>
        <_>
          1 0 23 4 -1.</_>
        <_>
          1 2 23 2 2.</_></rects>
      <tilted>0</tilted></_>
    <_>
      <rects>
        <_>
          1 0 23 22 -1.</_>
        <_>
          1 11 23 11 2.</_></rects>
      <tilted>0</tilted></_>
    <_>
      <rects>
        <_>
          1 1 1 3 -1.</_>
        <_>
          1 2 1 1 3.</_></rects>
      <tilted>0</tilted></_>
    <_>
      <rects>
        <_>
          1 1 20 23 -1.</_>
        <_>
          11 1 10 23 2.</_></rects>
      <tilted>0</tilted></_>
    <_>
      <rects>
        <_>
          1 2 3 2 -1.</_>
        <_>
          2 2 1 2 3.</_></rects>
      <tilted>0</tilted></_>
    <_>
      <rects>
        <_>
          1 3 16 4 -1.</_>
        <_>
          9 3 8 4 2.</_></rects>
      <tilted>0</tilted></_>
    <_>
      <rects>
        <_>
          1 4 12 7 -1.</_>
        <_>
          5 4 4 7 3.</_></rects>
      <tilted>0</tilted></_>
    <_>
      <rects>
        <_>
          1 5 20 6 -1.</_>
        <_>
          1 8 20 3 2.</_></rects>
      <tilted>0</tilted></_>
    <_>
      <rects>
        <_>
          1 6 8 13 -1.</_>
        <_>
          5 6 4 13 2.</_></rects>
      <tilted>0</tilted></_>
    <_>
      <rects>
        <_>
          1 9 8 12 -1.</_>
        <_>
          5 9 4 12 2.</_></rects>
      <tilted>0</tilted></_>
    <_>
      <rects>
        <_>
          1 9 21 12 -1.</_>
        <_>
          1 15 21 6 2.</_></rects>
      <tilted>0</tilted></_>
    <_>
      <rects>
        <_>
          1 9 21 14 -1.</_>
        <_>
          1 16 21 7 2.</_></rects>
      <tilted>0</tilted></_>
    <_>
      <rects>
        <_>
          1 10 2 4 -1.</_>
        <_>
          2 10 1 4 2.</_></rects>
      <tilted>0</tilted></_>
    <_>
      <rects>
        <_>
          1 10 7 6 -1.</_>
        <_>
          1 13 7 3 2.</_></rects>
      <tilted>0</tilted></_>
    <_>
      <rects>
        <_>
          1 10 12 6 -1.</_>
        <_>
          1 13 12 3 2.</_></rects>
      <tilted>0</tilted></_>
    <_>
      <rects>
        <_>
          1 11 18 6 -1.</_>
        <_>
          1 11 9 3 2.</_>
        <_>
          10 14 9 3 2.</_></rects>
      <tilted>0</tilted></_>
    <_>
      <rects>
        <_>
          1 12 2 6 -1.</_>
        <_>
          1 12 1 3 2.</_>
        <_>
          2 15 1 3 2.</_></rects>
      <tilted>0</tilted></_>
    <_>
      <rects>
        <_>
          1 12 19 12 -1.</_>
        <_>
          1 18 19 6 2.</_></rects>
      <tilted>0</tilted></_>
    <_>
      <rects>
        <_>
          1 21 17 3 -1.</_>
        <_>
          1 22 17 1 3.</_></rects>
      <tilted>0</tilted></_>
    <_>
      <rects>
        <_>
          1 22 2 2 -1.</_>
        <_>
          2 22 1 2 2.</_></rects>
      <tilted>0</tilted></_>
    <_>
      <rects>
        <_>
          1 23 2 1 -1.</_>
        <_>
          2 23 1 1 2.</_></rects>
      <tilted>0</tilted></_>
    <_>
      <rects>
        <_>
          2 0 14 2 -1.</_>
        <_>
          2 0 7 1 2.</_>
        <_>
          9 1 7 1 2.</_></rects>
      <tilted>0</tilted></_>
    <_>
      <rects>
        <_>
          2 0 15 3 -1.</_>
        <_>
          2 1 15 1 3.</_></rects>
      <tilted>0</tilted></_>
    <_>
      <rects>
        <_>
          2 2 1 8 -1.</_>
        <_>
          2 6 1 4 2.</_></rects>
      <tilted>0</tilted></_>
    <_>
      <rects>
        <_>
          2 2 21 21 -1.</_>
        <_>
          9 2 7 21 3.</_></rects>
      <tilted>0</tilted></_>
    <_>
      <rects>
        <_>
          2 3 4 8 -1.</_>
        <_>
          2 3 2 4 2.</_>
        <_>
          4 7 2 4 2.</_></rects>
      <tilted>0</tilted></_>
    <_>
      <rects>
        <_>
          2 4 12 11 -1.</_>
        <_>
          6 4 4 11 3.</_></rects>
      <tilted>0</tilted></_>
    <_>
      <rects>
        <_>
          2 4 14 20 -1.</_>
        <_>
          9 4 7 20 2.</_></rects>
      <tilted>0</tilted></_>
    <_>
      <rects>
        <_>
          2 4 16 6 -1.</_>
        <_>
          2 4 8 3 2.</_>
        <_>
          10 7 8 3 2.</_></rects>
      <tilted>0</tilted></_>
    <_>
      <rects>
        <_>
          2 5 14 3 -1.</_>
        <_>
          2 6 14 1 3.</_></rects>
      <tilted>0</tilted></_>
    <_>
      <rects>
        <_>
          2 7 4 9 -1.</_>
        <_>
          2 10 4 3 3.</_></rects>
      <tilted>0</tilted></_>
    <_>
      <rects>
        <_>
          2 7 14 4 -1.</_>
        <_>
          2 9 14 2 2.</_></rects>
      <tilted>0</tilted></_>
    <_>
      <rects>
        <_>
          2 8 2 7 -1.</_>
        <_>
          3 8 1 7 2.</_></rects>
      <tilted>0</tilted></_>
    <_>
      <rects>
        <_>
          2 10 8 9 -1.</_>
        <_>
          6 10 4 9 2.</_></rects>
      <tilted>0</tilted></_>
    <_>
      <rects>
        <_>
          2 11 19 12 -1.</_>
        <_>
          2 17 19 6 2.</_></rects>
      <tilted>0</tilted></_>
    <_>
      <rects>
        <_>
          2 13 20 6 -1.</_>
        <_>
          2 13 10 3 2.</_>
        <_>
          12 16 10 3 2.</_></rects>
      <tilted>0</tilted></_>
    <_>
      <rects>
        <_>
          2 13 22 5 -1.</_>
        <_>
          13 13 11 5 2.</_></rects>
      <tilted>0</tilted></_>
    <_>
      <rects>
        <_>
          2 16 4 1 -1.</_>
        <_>
          4 16 2 1 2.</_></rects>
      <tilted>0</tilted></_>
    <_>
      <rects>
        <_>
          2 22 19 2 -1.</_>
        <_>
          2 23 19 1 2.</_></rects>
      <tilted>0</tilted></_>
    <_>
      <rects>
        <_>
          3 0 6 22 -1.</_>
        <_>
          5 0 2 22 3.</_></rects>
      <tilted>0</tilted></_>
    <_>
      <rects>
        <_>
          3 0 8 2 -1.</_>
        <_>
          7 0 4 2 2.</_></rects>
      <tilted>0</tilted></_>
    <_>
      <rects>
        <_>
          3 0 15 2 -1.</_>
